{"learner":{"attributes":{"best_iteration":"149","best_ntree_limit":"150","scikit_learn":"{\"n_estimators\": 150, \"objective\": \"reg:squarederror\", \"max_depth\": 2, \"learning_rate\": 0.05, \"verbosity\": null, \"booster\": null, \"tree_method\": null, \"gamma\": null, \"min_child_weight\": null, \"max_delta_step\": null, \"subsample\": 0.5, \"colsample_bytree\": null, \"colsample_bylevel\": null, \"colsample_bynode\": null, \"reg_alpha\": null, \"reg_lambda\": null, \"scale_pos_weight\": null, \"base_score\": null, \"missing\": NaN, \"num_parallel_tree\": null, \"random_state\": null, \"n_jobs\": null, \"monotone_constraints\": null, \"interaction_constraints\": null, \"importance_type\": null, \"gpu_id\": null, \"validate_parameters\": null, \"predictor\": null, \"enable_categorical\": false, \"_estimator_type\": \"regressor\"}"},"feature_names":[],"feature_types":[],"gradient_booster":{"model":{"gbtree_model_param":{"num_trees":"150","size_leaf_vector":"0"},"tree_info":[0,0,0,0,0,0,0,0,0,0,0,0,0,0,0,0,0,0,0,0,0,0,0,0,0,0,0,0,0,0,0,0,0,0,0,0,0,0,0,0,0,0,0,0,0,0,0,0,0,0,0,0,0,0,0,0,0,0,0,0,0,0,0,0,0,0,0,0,0,0,0,0,0,0,0,0,0,0,0,0,0,0,0,0,0,0,0,0,0,0,0,0,0,0,0,0,0,0,0,0,0,0,0,0,0,0,0,0,0,0,0,0,0,0,0,0,0,0,0,0,0,0,0,0,0,0,0,0,0,0,0,0,0,0,0,0,0,0,0,0,0,0,0,0,0,0,0,0,0,0],"trees":[{"base_weights":[-4.9989852E-1,-4.4028622E-1,-5.0077444E-1,-3.5559535E-1,-4.4318932E-1,-5.0095E-1,-4.3604016E-1],"categories":[],"categories_nodes":[],"categories_segments":[],"categories_sizes":[],"default_left":[true,true,true,false,false,false,false],"id":0,"left_children":[1,3,5,-1,-1,-1,-1],"loss_changes":[2.1367188E0,5.1574707E-3,2.8710938E-1,0E0,0E0,0E0,0E0],"parents":[2147483647,0,0,1,1,2,2],"right_children":[2,4,6,-1,-1,-1,-1],"split_conditions":[-2.732941E-1,-4.4412965E-1,3.6719924E-1,-1.7779768E-2,-2.2159467E-2,-2.50475E-2,-2.1802008E-2],"split_indices":[3,3,0,0,0,0,0],"split_type":[0,0,0,0,0,0,0],"sum_hessian":[4.5142E4,6.61E2,4.4481E4,2.6E1,6.35E2,4.4354E4,1.27E2],"tree_param":{"num_deleted":"0","num_feature":"5","num_nodes":"7","size_leaf_vector":"0"}},{"base_weights":[-4.7485355E-1,-4.393137E-1,-4.7596946E-1,-4.2545894E-1,-4.5299158E-1,-4.7611746E-1,-4.2098877E-1],"categories":[],"categories_nodes":[],"categories_segments":[],"categories_sizes":[],"default_left":[true,true,true,false,false,false,false],"id":1,"left_children":[1,3,5,-1,-1,-1,-1],"loss_changes":[1.5791016E0,6.994629E-2,1.5527344E-1,0E0,0E0,0E0,0E0],"parents":[2147483647,0,0,1,1,2,2],"right_children":[2,4,6,-1,-1,-1,-1],"split_conditions":[-2.2014415E-1,-2.6427418E-1,3.6720517E-1,-2.1272948E-2,-2.2649579E-2,-2.3805873E-2,-2.1049438E-2],"split_indices":[0,0,0,0,0,0,0],"split_type":[0,0,0,0,0,0,0],"sum_hessian":[4.51E4,1.385E3,4.3715E4,7.04E2,6.81E2,4.359E4,1.25E2],"tree_param":{"num_deleted":"0","num_feature":"5","num_nodes":"7","size_leaf_vector":"0"}},{"base_weights":[-4.5139346E-1,-4.0075234E-1,-4.5224926E-1,-2.737839E-1,-4.0277624E-1,-4.321263E-1,-4.525819E-1],"categories":[],"categories_nodes":[],"categories_segments":[],"categories_sizes":[],"default_left":[true,true,true,false,false,false,false],"id":2,"left_children":[1,3,5,-1,-1,-1,-1],"loss_changes":[1.7695312E0,8.425903E-2,1.0058594E-1,0E0,0E0,0E0,0E0],"parents":[2147483647,0,0,1,1,2,2],"right_children":[2,4,6,-1,-1,-1,-1],"split_conditions":[-2.592974E-1,-4.5503044E-1,-2.1741702E-1,-1.3689195E-2,-2.0138813E-2,-2.1606317E-2,-2.2629095E-2],"split_indices":[1,4,4,0,0,0,0],"split_type":[0,0,0,0,0,0,0],"sum_hessian":[4.5022E4,7.56E2,4.4266E4,1.4E1,7.42E2,7.41E2,4.3525E4],"tree_param":{"num_deleted":"0","num_feature":"5","num_nodes":"7","size_leaf_vector":"0"}},{"base_weights":[-4.2905307E-1,-3.9368874E-1,-4.3019822E-1,-3.7505844E-1,-4.0109757E-1,-4.3457112E-1,-4.2871737E-1],"categories":[],"categories_nodes":[],"categories_segments":[],"categories_sizes":[],"default_left":[true,true,true,false,false,false,false],"id":3,"left_children":[1,3,5,-1,-1,-1,-1],"loss_changes":[1.6513672E0,4.5837402E-2,9.6191406E-2,0E0,0E0,0E0,0E0],"parents":[2147483647,0,0,1,1,2,2],"right_children":[2,4,6,-1,-1,-1,-1],"split_conditions":[-2.1898408E-1,-2.9819077E-1,-2.9452145E-2,-1.8752923E-2,-2.0054879E-2,-2.1728557E-2,-2.143587E-2],"split_indices":[4,1,4,0,0,0,0],"split_type":[0,0,0,0,0,0,0],"sum_hessian":[4.4959E4,1.421E3,4.3538E4,4.19E2,1.002E3,1.094E4,3.2598E4],"tree_param":{"num_deleted":"0","num_feature":"5","num_nodes":"7","size_leaf_vector":"0"}},{"base_weights":[-4.073614E-1,-3.6708903E-1,-4.0810904E-1,-3.6729434E-1,-9.834148E-2,-4.082429E-1,-3.580225E-1],"categories":[],"categories_nodes":[],"categories_segments":[],"categories_sizes":[],"default_left":[true,true,true,false,false,false,false],"id":4,"left_children":[1,3,5,-1,-1,-1,-1],"loss_changes":[1.206543E0,9.727478E-3,1.5039062E-1,0E0,0E0,0E0,0E0],"parents":[2147483647,0,0,1,1,2,2],"right_children":[2,4,6,-1,-1,-1,-1],"split_conditions":[-2.575177E-1,-2.576751E-1,3.6965984E-1,-1.8364718E-2,-4.917074E-3,-2.0412145E-2,-1.7901126E-2],"split_indices":[1,1,3,0,0,0,0],"split_type":[0,0,0,0,0,0,0],"sum_hessian":[4.5046E4,8.3E2,4.4216E4,8.29E2,1E0,4.4091E4,1.25E2],"tree_param":{"num_deleted":"0","num_feature":"5","num_nodes":"7","size_leaf_vector":"0"}},{"base_weights":[-3.8728833E-1,-3.6486986E-1,-3.885387E-1,-3.399027E-1,-3.7144807E-1,-3.96427E-1,-3.872241E-1],"categories":[],"categories_nodes":[],"categories_segments":[],"categories_sizes":[],"default_left":[true,true,true,false,false,false,false],"id":5,"left_children":[1,3,5,-1,-1,-1,-1],"loss_changes":[1.1201172E0,2.6690674E-1,2.8808594E-1,0E0,0E0,0E0,0E0],"parents":[2147483647,0,0,1,1,2,2],"right_children":[2,4,6,-1,-1,-1,-1],"split_conditions":[-1.7438924E-1,-2.870075E-1,-5.968281E-2,-1.6995136E-2,-1.8572403E-2,-1.9821351E-2,-1.9361205E-2],"split_indices":[4,4,4,0,0,0,0],"split_type":[0,0,0,0,0,0,0],"sum_hessian":[4.5005E4,2.393E3,4.2612E4,5.1E2,1.883E3,6.044E3,3.6568E4],"tree_param":{"num_deleted":"0","num_feature":"5","num_nodes":"7","size_leaf_vector":"0"}},{"base_weights":[-3.671861E-1,-3.2762417E-1,-3.6789185E-1,-2.5007555E-1,-3.2981437E-1,-3.679881E-1,-3.2566538E-1],"categories":[],"categories_nodes":[],"categories_segments":[],"categories_sizes":[],"default_left":[true,true,true,false,false,false,false],"id":6,"left_children":[1,3,5,-1,-1,-1,-1],"loss_changes":[1.1333008E0,5.2719116E-2,5.9570312E-2,0E0,0E0,0E0,0E0],"parents":[2147483647,0,0,1,1,2,2],"right_children":[2,4,6,-1,-1,-1,-1],"split_conditions":[-2.5724247E-1,-4.4407383E-1,3.6965984E-1,-1.2503778E-2,-1.6490718E-2,-1.8399406E-2,-1.628327E-2],"split_indices":[2,3,0,0,0,0,0],"split_type":[0,0,0,0,0,0,0],"sum_hessian":[4.4895E4,7.95E2,4.41E4,2.5E1,7.7E2,4.3992E4,1.08E2],"tree_param":{"num_deleted":"0","num_feature":"5","num_nodes":"7","size_leaf_vector":"0"}},{"base_weights":[-3.4896356E-1,-3.049342E-1,-3.495681E-1,-1.9263488E-1,-3.076078E-1,-3.3379295E-1,-3.498617E-1],"categories":[],"categories_nodes":[],"categories_segments":[],"categories_sizes":[],"default_left":[true,true,true,false,false,false,false],"id":7,"left_children":[1,3,5,-1,-1,-1,-1],"loss_changes":[1.0888672E0,1.2569427E-1,8.886719E-2,0E0,0E0,0E0,0E0],"parents":[2147483647,0,0,1,1,2,2],"right_children":[2,4,6,-1,-1,-1,-1],"split_conditions":[-2.744471E-1,-4.5676762E-1,-2.1798593E-1,-9.631745E-3,-1.538039E-2,-1.6689649E-2,-1.7493086E-2],"split_indices":[2,2,4,0,0,0,0],"split_type":[0,0,0,0,0,0,0],"sum_hessian":[4.4902E4,6.15E2,4.4287E4,1.6E1,5.99E2,8.3E2,4.3457E4],"tree_param":{"num_deleted":"0","num_feature":"5","num_nodes":"7","size_leaf_vector":"0"}},{"base_weights":[-3.3171114E-1,-3.0212972E-1,-3.327306E-1,-2.8241038E-1,-3.0888593E-1,-3.3283222E-1,-2.5088727E-1],"categories":[],"categories_nodes":[],"categories_segments":[],"categories_sizes":[],"default_left":[true,true,true,false,false,false,false],"id":8,"left_children":[1,3,5,-1,-1,-1,-1],"loss_changes":[1.2568359E0,1.1393738E-1,2.783203E-1,0E0,0E0,0E0,0E0],"parents":[2147483647,0,0,1,1,2,2],"right_children":[2,4,6,-1,-1,-1,-1],"split_conditions":[-2.1409836E-1,-2.9879874E-1,4.0201843E-1,-1.4120519E-2,-1.5444296E-2,-1.6641611E-2,-1.2544364E-2],"split_indices":[4,1,0,0,0,0,0],"split_type":[0,0,0,0,0,0,0],"sum_hessian":[4.4999E4,1.509E3,4.349E4,3.96E2,1.113E3,4.3433E4,5.7E1],"tree_param":{"num_deleted":"0","num_feature":"5","num_nodes":"7","size_leaf_vector":"0"}},{"base_weights":[-3.152486E-1,-2.895795E-1,-3.1605384E-1,-2.5915873E-1,-2.9437485E-1,-3.160914E-1,-1.767403E-1],"categories":[],"categories_nodes":[],"categories_segments":[],"categories_sizes":[],"default_left":[true,true,true,false,false,false,false],"id":9,"left_children":[1,3,5,-1,-1,-1,-1],"loss_changes":[8.3691406E-1,1.2473297E-1,1.7236328E-1,0E0,0E0,0E0,0E0],"parents":[2147483647,0,0,1,1,2,2],"right_children":[2,4,6,-1,-1,-1,-1],"split_conditions":[-2.1996032E-1,-3.432107E-1,4.7001368E-1,-1.2957937E-2,-1.4718743E-2,-1.580457E-2,-8.837015E-3],"split_indices":[0,4,0,0,0,0,0],"split_type":[0,0,0,0,0,0,0],"sum_hessian":[4.4913E4,1.377E3,4.3536E4,1.95E2,1.182E3,4.3523E4,1.3E1],"tree_param":{"num_deleted":"0","num_feature":"5","num_nodes":"7","size_leaf_vector":"0"}},{"base_weights":[-2.992994E-1,-2.709685E-1,-2.998083E-1,-1.6436519E-1,-2.7347833E-1,-2.9986238E-1,-1.8781552E-1],"categories":[],"categories_nodes":[],"categories_segments":[],"categories_sizes":[],"default_left":[true,true,true,false,false,false,false],"id":10,"left_children":[1,3,5,-1,-1,-1,-1],"loss_changes":[5.671387E-1,1.701622E-1,2.1142578E-1,0E0,0E0,0E0,0E0],"parents":[2147483647,0,0,1,1,2,2],"right_children":[2,4,6,-1,-1,-1,-1],"split_conditions":[-2.5695112E-1,-4.5235217E-1,4.4842553E-1,-8.21826E-3,-1.3673916E-2,-1.4993119E-2,-9.390776E-3],"split_indices":[4,4,0,0,0,0,0],"split_type":[0,0,0,0,0,0,0],"sum_hessian":[4.4974E4,8.03E2,4.4171E4,2E1,7.83E2,4.4148E4,2.3E1],"tree_param":{"num_deleted":"0","num_feature":"5","num_nodes":"7","size_leaf_vector":"0"}},{"base_weights":[-2.8408113E-1,-2.6077142E-1,-2.8482297E-1,-2.4520925E-1,-2.67159E-1,-2.8490013E-1,-2.001453E-1],"categories":[],"categories_nodes":[],"categories_segments":[],"categories_sizes":[],"default_left":[true,true,true,false,false,false,false],"id":11,"left_children":[1,3,5,-1,-1,-1,-1],"loss_changes":[7.0288086E-1,7.345581E-2,2.2729492E-1,0E0,0E0,0E0,0E0],"parents":[2147483647,0,0,1,1,2,2],"right_children":[2,4,6,-1,-1,-1,-1],"split_conditions":[-2.2014415E-1,-2.928893E-1,4.2486984E-1,-1.2260462E-2,-1.3357949E-2,-1.4245006E-2,-1.0007265E-2],"split_indices":[0,4,1,0,0,0,0],"split_type":[0,0,0,0,0,0,0],"sum_hessian":[4.494E4,1.397E3,4.3543E4,4.18E2,9.79E2,4.3501E4,4.2E1],"tree_param":{"num_deleted":"0","num_feature":"5","num_nodes":"7","size_leaf_vector":"0"}},{"base_weights":[-2.6985294E-1,-2.3791151E-1,-2.7034158E-1,-1.01949565E-1,-2.4058835E-1,-2.7046615E-1,-2.1009526E-1],"categories":[],"categories_nodes":[],"categories_segments":[],"categories_sizes":[],"default_left":[true,true,true,false,false,false,false],"id":12,"left_children":[1,3,5,-1,-1,-1,-1],"loss_changes":[6.386719E-1,2.2550583E-1,2.763672E-1,0E0,0E0,0E0,0E0],"parents":[2147483647,0,0,1,1,2,2],"right_children":[2,4,6,-1,-1,-1,-1],"split_conditions":[-2.6689383E-1,-4.5676762E-1,3.7835103E-1,-5.097478E-3,-1.2029418E-2,-1.3523308E-2,-1.0504763E-2],"split_indices":[0,4,2,0,0,0,0],"split_type":[0,0,0,0,0,0,0],"sum_hessian":[4.5039E4,6.86E2,4.4353E4,1.4E1,6.72E2,4.4258E4,9.5E1],"tree_param":{"num_deleted":"0","num_feature":"5","num_nodes":"7","size_leaf_vector":"0"}},{"base_weights":[-2.5676492E-1,-2.4055025E-1,-2.5769308E-1,-1.383793E-1,-2.412108E-1,-2.6377738E-1,-2.5630346E-1],"categories":[],"categories_nodes":[],"categories_segments":[],"categories_sizes":[],"default_left":[true,true,true,false,false,false,false],"id":13,"left_children":[1,3,5,-1,-1,-1,-1],"loss_changes":[6.11084E-1,1.3110352E-1,2.9003906E-1,0E0,0E0,0E0,0E0],"parents":[2147483647,0,0,1,1,2,2],"right_children":[2,4,6,-1,-1,-1,-1],"split_conditions":[-1.744496E-1,-4.5820948E-1,-4.270106E-2,-6.9189654E-3,-1.2060541E-2,-1.3188869E-2,-1.2815173E-2],"split_indices":[4,2,2,0,0,0,0],"split_type":[0,0,0,0,0,0,0],"sum_hessian":[4.4732E4,2.436E3,4.2296E4,1.7E1,2.419E3,7.829E3,3.4467E4],"tree_param":{"num_deleted":"0","num_feature":"5","num_nodes":"7","size_leaf_vector":"0"}},{"base_weights":[-2.4377377E-1,-2.2302233E-1,-2.4447076E-1,-1.24958746E-1,-2.2434723E-1,-2.445899E-1,-2.0059082E-1],"categories":[],"categories_nodes":[],"categories_segments":[],"categories_sizes":[],"default_left":[true,true,true,false,false,false,false],"id":14,"left_children":[1,3,5,-1,-1,-1,-1],"loss_changes":[5.9936523E-1,1.6438293E-1,1.7944336E-1,0E0,0E0,0E0,0E0],"parents":[2147483647,0,0,1,1,2,2],"right_children":[2,4,6,-1,-1,-1,-1],"split_conditions":[-2.1750727E-1,-4.5625025E-1,3.6668345E-1,-6.247937E-3,-1.1217362E-2,-1.2229495E-2,-1.0029541E-2],"split_indices":[0,4,0,0,0,0,0],"split_type":[0,0,0,0,0,0,0],"sum_hessian":[4.5223E4,1.48E3,4.3743E4,2.1E1,1.459E3,4.362E4,1.23E2],"tree_param":{"num_deleted":"0","num_feature":"5","num_nodes":"7","size_leaf_vector":"0"}},{"base_weights":[-2.3185873E-1,-2.1127525E-1,-2.3259744E-1,-1.3208474E-1,-2.1236654E-1,-2.3696329E-1,-2.3113453E-1],"categories":[],"categories_nodes":[],"categories_segments":[],"categories_sizes":[],"default_left":[true,true,true,false,false,false,false],"id":15,"left_children":[1,3,5,-1,-1,-1,-1],"loss_changes":[6.3549805E-1,1.0771942E-1,2.2265625E-1,0E0,0E0,0E0,0E0],"parents":[2147483647,0,0,1,1,2,2],"right_children":[2,4,6,-1,-1,-1,-1],"split_conditions":[-2.1184301E-1,-4.4412965E-1,-2.911713E-2,-6.604237E-3,-1.0618327E-2,-1.1848165E-2,-1.1556727E-2],"split_indices":[2,3,3,0,0,0,0],"split_type":[0,0,0,0,0,0,0],"sum_hessian":[4.5029E4,1.57E3,4.3459E4,2.3E1,1.547E3,1.0867E4,3.2592E4],"tree_param":{"num_deleted":"0","num_feature":"5","num_nodes":"7","size_leaf_vector":"0"}},{"base_weights":[-2.1985373E-1,-1.9808516E-1,-2.2023483E-1,-3.419333E-1,-1.9616155E-1,-2.2036837E-1,-1.6975407E-1],"categories":[],"categories_nodes":[],"categories_segments":[],"categories_sizes":[],"default_left":[true,true,true,false,false,false,false],"id":16,"left_children":[1,3,5,-1,-1,-1,-1],"loss_changes":[3.2958984E-1,1.498642E-1,2.607422E-1,0E0,0E0,0E0,0E0],"parents":[2147483647,0,0,1,1,2,2],"right_children":[2,4,6,-1,-1,-1,-1],"split_conditions":[-2.585733E-1,-5.1394117E-1,3.670716E-1,-1.7096667E-2,-9.8080775E-3,-1.1018419E-2,-8.487704E-3],"split_indices":[0,1,0,0,0,0,0],"split_type":[0,0,0,0,0,0,0],"sum_hessian":[4.4989E4,7.83E2,4.4206E4,8E0,7.75E2,4.4086E4,1.2E2],"tree_param":{"num_deleted":"0","num_feature":"5","num_nodes":"7","size_leaf_vector":"0"}},{"base_weights":[-2.0899302E-1,-1.8799801E-1,-2.0965017E-1,-1.5205811E-1,-1.8984108E-1,-2.1483406E-1,-2.0805669E-1],"categories":[],"categories_nodes":[],"categories_segments":[],"categories_sizes":[],"default_left":[true,true,true,false,false,false,false],"id":17,"left_children":[1,3,5,-1,-1,-1,-1],"loss_changes":[5.8032227E-1,6.2080383E-2,3.149414E-1,0E0,0E0,0E0,0E0],"parents":[2147483647,0,0,1,1,2,2],"right_children":[2,4,6,-1,-1,-1,-1],"split_conditions":[-2.198691E-1,-3.9351767E-1,-3.459969E-2,-7.6029054E-3,-9.492054E-3,-1.0741703E-2,-1.0402835E-2],"split_indices":[2,0,4,0,0,0,0],"split_type":[0,0,0,0,0,0,0],"sum_hessian":[4.4918E4,1.372E3,4.3546E4,7.1E1,1.301E3,1.0207E4,3.3339E4],"tree_param":{"num_deleted":"0","num_feature":"5","num_nodes":"7","size_leaf_vector":"0"}},{"base_weights":[-1.9903274E-1,-1.8070294E-1,-1.996359E-1,-1.5605159E-1,-1.8476851E-1,-2.062389E-1,-1.9834629E-1],"categories":[],"categories_nodes":[],"categories_segments":[],"categories_sizes":[],"default_left":[true,true,true,false,false,false,false],"id":18,"left_children":[1,3,5,-1,-1,-1,-1],"loss_changes":[4.6411133E-1,1.1668396E-1,3.3203125E-1,0E0,0E0,0E0,0E0],"parents":[2147483647,0,0,1,1,2,2],"right_children":[2,4,6,-1,-1,-1,-1],"split_conditions":[-2.2010896E-1,-3.4219337E-1,-5.968281E-2,-7.8025796E-3,-9.238426E-3,-1.0311945E-2,-9.917314E-3],"split_indices":[2,4,2,0,0,0,0],"split_type":[0,0,0,0,0,0,0],"sum_hessian":[4.5247E4,1.451E3,4.3796E4,2.11E2,1.24E3,7.13E3,3.6666E4],"tree_param":{"num_deleted":"0","num_feature":"5","num_nodes":"7","size_leaf_vector":"0"}},{"base_weights":[-1.8818127E-1,-1.624113E-1,-1.8863477E-1,-5.2152123E-2,-1.6376148E-1,-1.8872838E-1,-1.4531031E-1],"categories":[],"categories_nodes":[],"categories_segments":[],"categories_sizes":[],"default_left":[true,true,true,false,false,false,false],"id":19,"left_children":[1,3,5,-1,-1,-1,-1],"loss_changes":[4.9694824E-1,1.0876846E-1,1.5246582E-1,0E0,0E0,0E0,0E0],"parents":[2147483647,0,0,1,1,2,2],"right_children":[2,4,6,-1,-1,-1,-1],"split_conditions":[-2.590598E-1,-4.6949983E-1,3.7843186E-1,-2.6076061E-3,-8.188074E-3,-9.436419E-3,-7.2655156E-3],"split_indices":[0,4,4,0,0,0,0],"split_type":[0,0,0,0,0,0,0],"sum_hessian":[4.5149E4,7.87E2,4.4362E4,1E1,7.77E2,4.4263E4,9.9E1],"tree_param":{"num_deleted":"0","num_feature":"5","num_nodes":"7","size_leaf_vector":"0"}},{"base_weights":[-1.7896949E-1,-1.5817684E-1,-1.7953028E-1,-3.3207986E-1,-1.5716027E-1,-1.8261264E-1,-1.7873688E-1],"categories":[],"categories_nodes":[],"categories_segments":[],"categories_sizes":[],"default_left":[true,true,true,false,false,false,false],"id":20,"left_children":[1,3,5,-1,-1,-1,-1],"loss_changes":[4.9487305E-1,1.5765572E-1,7.421875E-2,0E0,0E0,0E0,0E0],"parents":[2147483647,0,0,1,1,2,2],"right_children":[2,4,6,-1,-1,-1,-1],"split_conditions":[-2.3232907E-1,-5.1057994E-1,-4.5870095E-2,-1.6603993E-2,-7.858014E-3,-9.1306325E-3,-8.936844E-3],"split_indices":[4,0,2,0,0,0,0],"split_type":[0,0,0,0,0,0,0],"sum_hessian":[4.4877E4,1.186E3,4.3691E4,5E0,1.181E3,8.897E3,3.4794E4],"tree_param":{"num_deleted":"0","num_feature":"5","num_nodes":"7","size_leaf_vector":"0"}},{"base_weights":[-1.7053685E-1,-1.4989677E-1,-1.7094369E-1,-1.5034741E-1,3.135333E-2,-1.749418E-1,-1.6953516E-1],"categories":[],"categories_nodes":[],"categories_segments":[],"categories_sizes":[],"default_left":[true,true,true,false,false,false,false],"id":21,"left_children":[1,3,5,-1,-1,-1,-1],"loss_changes":[3.5131836E-1,7.626343E-2,2.1826172E-1,0E0,0E0,0E0,0E0],"parents":[2147483647,0,0,1,1,2,2],"right_children":[2,4,6,-1,-1,-1,-1],"split_conditions":[-2.5132024E-1,-2.513798E-1,-2.8968811E-2,-7.517371E-3,1.5676664E-3,-8.74709E-3,-8.476758E-3],"split_indices":[0,0,4,0,0,0,0],"split_type":[0,0,0,0,0,0,0],"sum_hessian":[4.4895E4,8.75E2,4.402E4,8.73E2,2E0,1.1436E4,3.2584E4],"tree_param":{"num_deleted":"0","num_feature":"5","num_nodes":"7","size_leaf_vector":"0"}},{"base_weights":[-1.6202916E-1,-1.4255987E-1,-1.6238284E-1,-4.9970556E-2,-1.4459339E-1,-1.6245173E-1,-1.3125344E-1],"categories":[],"categories_nodes":[],"categories_segments":[],"categories_sizes":[],"default_left":[true,true,true,false,false,false,false],"id":22,"left_children":[1,3,5,-1,-1,-1,-1],"loss_changes":[2.8735352E-1,1.4584732E-1,7.36084E-2,0E0,0E0,0E0,0E0],"parents":[2147483647,0,0,1,1,2,2],"right_children":[2,4,6,-1,-1,-1,-1],"split_conditions":[-2.555911E-1,-4.5235217E-1,3.7761694E-1,-2.4985278E-3,-7.2296695E-3,-8.122587E-3,-6.562672E-3],"split_indices":[4,4,2,0,0,0,0],"split_type":[0,0,0,0,0,0,0],"sum_hessian":[4.5107E4,8.12E2,4.4295E4,1.8E1,7.94E2,4.4193E4,1.02E2],"tree_param":{"num_deleted":"0","num_feature":"5","num_nodes":"7","size_leaf_vector":"0"}},{"base_weights":[-1.5405698E-1,-1.4186652E-1,-1.5471698E-1,-2.7988258E-1,-1.4138708E-1,-1.6722853E-1,-1.5417096E-1],"categories":[],"categories_nodes":[],"categories_segments":[],"categories_sizes":[],"default_left":[true,true,true,false,false,false,false],"id":23,"left_children":[1,3,5,-1,-1,-1,-1],"loss_changes":[3.3911133E-1,1.1374283E-1,2.6501465E-1,0E0,0E0,0E0,0E0],"parents":[2147483647,0,0,1,1,2,2],"right_children":[2,4,6,-1,-1,-1,-1],"split_conditions":[-1.7702314E-1,-5.1394117E-1,-1.2511086E-1,-1.3994129E-2,-7.069354E-3,-8.361427E-3,-7.708548E-3],"split_indices":[4,0,2,0,0,0,0],"split_type":[0,0,0,0,0,0,0],"sum_hessian":[4.4878E4,2.316E3,4.2562E4,6E0,2.31E3,1.767E3,4.0795E4],"tree_param":{"num_deleted":"0","num_feature":"5","num_nodes":"7","size_leaf_vector":"0"}},{"base_weights":[-1.4579883E-1,-1.3460071E-1,-1.4648455E-1,-2.786636E-1,-1.3416411E-1,-1.5224262E-1,-1.4557602E-1],"categories":[],"categories_nodes":[],"categories_segments":[],"categories_sizes":[],"default_left":[true,true,true,false,false,false,false],"id":24,"left_children":[1,3,5,-1,-1,-1,-1],"loss_changes":[3.2781982E-1,1.2766266E-1,2.008667E-1,0E0,0E0,0E0,0E0],"parents":[2147483647,0,0,1,1,2,2],"right_children":[2,4,6,-1,-1,-1,-1],"split_conditions":[-1.6680866E-1,-5.1394117E-1,-6.042532E-2,-1.3933181E-2,-6.7082057E-3,-7.612131E-3,-7.278801E-3],"split_indices":[4,1,4,0,0,0,0],"split_type":[0,0,0,0,0,0,0],"sum_hessian":[4.526E4,2.623E3,4.2637E4,6E0,2.617E3,5.788E3,3.6849E4],"tree_param":{"num_deleted":"0","num_feature":"5","num_nodes":"7","size_leaf_vector":"0"}},{"base_weights":[-1.3896307E-1,-1.2042259E-1,-1.3930035E-1,-2.8986627E-1,-1.1879957E-1,-8.493701E-2,-1.393514E-1],"categories":[],"categories_nodes":[],"categories_segments":[],"categories_sizes":[],"default_left":[true,true,true,false,false,false,false],"id":25,"left_children":[1,3,5,-1,-1,-1,-1],"loss_changes":[2.6452637E-1,1.8859768E-1,1.1077881E-1,0E0,0E0,0E0,0E0],"parents":[2147483647,0,0,1,1,2,2],"right_children":[2,4,6,-1,-1,-1,-1],"split_conditions":[-2.574462E-1,-5.1394117E-1,-2.9395747E-1,-1.4493314E-2,-5.9399786E-3,-4.246851E-3,-6.96757E-3],"split_indices":[0,0,3,0,0,0,0],"split_type":[0,0,0,0,0,0,0],"sum_hessian":[4.4979E4,8.1E2,4.4169E4,6E0,8.04E2,4.3E1,4.4126E4],"tree_param":{"num_deleted":"0","num_feature":"5","num_nodes":"7","size_leaf_vector":"0"}},{"base_weights":[-1.3172978E-1,-1.1804695E-1,-1.3216205E-1,-1.827766E-2,-1.1883238E-1,-1.3672543E-1,-1.312587E-1],"categories":[],"categories_nodes":[],"categories_segments":[],"categories_sizes":[],"default_left":[true,true,true,false,false,false,false],"id":26,"left_children":[1,3,5,-1,-1,-1,-1],"loss_changes":[2.5006104E-1,1.0635948E-1,1.6156006E-1,0E0,0E0,0E0,0E0],"parents":[2147483647,0,0,1,1,2,2],"right_children":[2,4,6,-1,-1,-1,-1],"split_conditions":[-2.2014415E-1,-4.5625025E-1,-5.9579156E-2,-9.1388304E-4,-5.941619E-3,-6.8362714E-3,-6.5629347E-3],"split_indices":[3,2,4,0,0,0,0],"split_type":[0,0,0,0,0,0,0],"sum_hessian":[4.4918E4,1.384E3,4.3534E4,1.1E1,1.373E3,7.169E3,3.6365E4],"tree_param":{"num_deleted":"0","num_feature":"5","num_nodes":"7","size_leaf_vector":"0"}},{"base_weights":[-1.253407E-1,-1.0335106E-1,-1.2564348E-1,-2.2000948E-1,-1.0126919E-1,-2.9314876E-1,-1.256181E-1],"categories":[],"categories_nodes":[],"categories_segments":[],"categories_sizes":[],"default_left":[true,true,true,false,false,false,false],"id":27,"left_children":[1,3,5,-1,-1,-1,-1],"loss_changes":[2.876587E-1,1.2805414E-1,1.5258789E-1,0E0,0E0,0E0,0E0],"parents":[2147483647,0,0,1,1,2,2],"right_children":[2,4,6,-1,-1,-1,-1],"split_conditions":[-2.745422E-1,-5.1394117E-1,-2.7355695E-1,-1.1000474E-2,-5.0634597E-3,-1.4657438E-2,-6.280905E-3],"split_indices":[2,2,2,0,0,0,0],"split_type":[0,0,0,0,0,0,0],"sum_hessian":[4.5158E4,6.18E2,4.454E4,9E0,6.09E2,5E0,4.4535E4],"tree_param":{"num_deleted":"0","num_feature":"5","num_nodes":"7","size_leaf_vector":"0"}},{"base_weights":[-1.18840665E-1,-1.0725242E-1,-1.1933884E-1,-1.07680365E-1,-7.037316E-3,-1.2295096E-1,-1.1841922E-1],"categories":[],"categories_nodes":[],"categories_segments":[],"categories_sizes":[],"default_left":[true,true,true,false,false,false,false],"id":28,"left_children":[1,3,5,-1,-1,-1,-1],"loss_changes":[2.4700928E-1,7.922363E-2,1.2878418E-1,0E0,0E0,0E0,0E0],"parents":[2147483647,0,0,1,1,2,2],"right_children":[2,4,6,-1,-1,-1,-1],"split_conditions":[-1.9761398E-1,-1.9797343E-1,-4.1180216E-2,-5.384018E-3,-3.518658E-4,-6.147548E-3,-5.920961E-3],"split_indices":[4,4,3,0,0,0,0],"split_type":[0,0,0,0,0,0,0],"sum_hessian":[4.5007E4,1.864E3,4.3143E4,1.856E3,8E0,8.728E3,3.4415E4],"tree_param":{"num_deleted":"0","num_feature":"5","num_nodes":"7","size_leaf_vector":"0"}},{"base_weights":[-1.1306019E-1,-9.870887E-2,-1.1351137E-1,-9.990719E-2,-4.9667574E-2,-1.1817902E-1,-1.1260872E-1],"categories":[],"categories_nodes":[],"categories_segments":[],"categories_sizes":[],"default_left":[true,true,true,false,false,false,false],"id":29,"left_children":[1,3,5,-1,-1,-1,-1],"loss_changes":[2.8118896E-1,7.637119E-2,1.7108154E-1,0E0,0E0,0E0,0E0],"parents":[2147483647,0,0,1,1,2,2],"right_children":[2,4,6,-1,-1,-1,-1],"split_conditions":[-2.1996032E-1,-2.2200806E-1,-5.9797075E-2,-4.9953596E-3,-2.4833789E-3,-5.908951E-3,-5.6304364E-3],"split_indices":[1,1,3,0,0,0,0],"split_type":[0,0,0,0,0,0,0],"sum_hessian":[4.5155E4,1.383E3,4.3772E4,1.349E3,3.4E1,7.072E3,3.67E4],"tree_param":{"num_deleted":"0","num_feature":"5","num_nodes":"7","size_leaf_vector":"0"}},{"base_weights":[-1.0719933E-1,-8.978973E-2,-1.0742828E-1,-2.1155208E-2,-9.203257E-2,-1.07483104E-1,-4.3848936E-2],"categories":[],"categories_nodes":[],"categories_segments":[],"categories_sizes":[],"default_left":[true,true,true,false,false,false,false],"id":30,"left_children":[1,3,5,-1,-1,-1,-1],"loss_changes":[1.6998291E-1,8.9028835E-2,1.5026855E-1,0E0,0E0,0E0,0E0],"parents":[2147483647,0,0,1,1,2,2],"right_children":[2,4,6,-1,-1,-1,-1],"split_conditions":[-2.773312E-1,-4.5625025E-1,4.2486984E-1,-1.0577604E-3,-4.6016285E-3,-5.3741555E-3,-2.1924467E-3],"split_indices":[4,3,0,0,0,0,0],"split_type":[0,0,0,0,0,0,0],"sum_hessian":[4.5061E4,5.9E2,4.4471E4,1.9E1,5.71E2,4.4432E4,3.9E1],"tree_param":{"num_deleted":"0","num_feature":"5","num_nodes":"7","size_leaf_vector":"0"}},{"base_weights":[-1.0195585E-1,-9.283984E-2,-1.02459095E-1,-2.2082023E-1,-9.236425E-2,-1.12175606E-1,-1.0199209E-1],"categories":[],"categories_nodes":[],"categories_segments":[],"categories_sizes":[],"default_left":[true,true,true,false,false,false,false],"id":31,"left_children":[1,3,5,-1,-1,-1,-1],"loss_changes":[1.9607544E-1,1.2294388E-1,1.8121338E-1,0E0,0E0,0E0,0E0],"parents":[2147483647,0,0,1,1,2,2],"right_children":[2,4,6,-1,-1,-1,-1],"split_conditions":[-1.7393374E-1,-5.1394117E-1,-1.2328547E-1,-1.1041012E-2,-4.6182126E-3,-5.6087803E-3,-5.099605E-3],"split_indices":[4,1,0,0,0,0,0],"split_type":[0,0,0,0,0,0,0],"sum_hessian":[4.481E4,2.354E3,4.2456E4,7E0,2.347E3,1.936E3,4.052E4],"tree_param":{"num_deleted":"0","num_feature":"5","num_nodes":"7","size_leaf_vector":"0"}},{"base_weights":[-9.711753E-2,-8.4566206E-2,-9.750771E-2,-1.677174E-2,-8.5765235E-2,-1.042003E-1,-9.709794E-2],"categories":[],"categories_nodes":[],"categories_segments":[],"categories_sizes":[],"default_left":[true,true,true,false,false,false,false],"id":32,"left_children":[1,3,5,-1,-1,-1,-1],"loss_changes":[2.1258545E-1,1.0968113E-1,1.09802246E-1,0E0,0E0,0E0,0E0],"parents":[2147483647,0,0,1,1,2,2],"right_children":[2,4,6,-1,-1,-1,-1],"split_conditions":[-2.2124681E-1,-4.4266415E-1,-1.2951571E-1,-8.38587E-4,-4.2882618E-3,-5.2100155E-3,-4.854897E-3],"split_indices":[4,4,0,0,0,0,0],"split_type":[0,0,0,0,0,0,0],"sum_hessian":[4.509E4,1.366E3,4.3724E4,2.4E1,1.342E3,2.508E3,4.1216E4],"tree_param":{"num_deleted":"0","num_feature":"5","num_nodes":"7","size_leaf_vector":"0"}},{"base_weights":[-9.210078E-2,-7.5858705E-2,-9.2416175E-2,-2.013412E-1,-7.4604675E-2,-9.251364E-2,-5.5049513E-2],"categories":[],"categories_nodes":[],"categories_segments":[],"categories_sizes":[],"default_left":[true,true,true,false,false,false,false],"id":33,"left_children":[1,3,5,-1,-1,-1,-1],"loss_changes":[2.2491455E-1,1.21566296E-1,1.5664673E-1,0E0,0E0,0E0,0E0],"parents":[2147483647,0,0,1,1,2,2],"right_children":[2,4,6,-1,-1,-1,-1],"split_conditions":[-2.569396E-1,-5.1114374E-1,3.6965984E-1,-1.006706E-2,-3.7302338E-3,-4.6256823E-3,-2.7524757E-3],"split_indices":[3,1,2,0,0,0,0],"split_type":[0,0,0,0,0,0,0],"sum_hessian":[4.5274E4,8.67E2,4.4407E4,7E0,8.6E2,4.429E4,1.17E2],"tree_param":{"num_deleted":"0","num_feature":"5","num_nodes":"7","size_leaf_vector":"0"}},{"base_weights":[-8.710306E-2,-7.831045E-2,-8.75965E-2,-1.9908355E-1,-7.792764E-2,-9.7472034E-2,-8.7226935E-2],"categories":[],"categories_nodes":[],"categories_segments":[],"categories_sizes":[],"default_left":[true,true,true,false,false,false,false],"id":34,"left_children":[1,3,5,-1,-1,-1,-1],"loss_changes":[1.8988037E-1,9.632397E-2,1.4816284E-1,0E0,0E0,0E0,0E0],"parents":[2147483647,0,0,1,1,2,2],"right_children":[2,4,6,-1,-1,-1,-1],"split_conditions":[-1.7375797E-1,-5.1394117E-1,-1.2633929E-1,-9.954178E-3,-3.8963822E-3,-4.8736017E-3,-4.361347E-3],"split_indices":[3,0,3,0,0,0,0],"split_type":[0,0,0,0,0,0,0],"sum_hessian":[4.5345E4,2.418E3,4.2927E4,6E0,2.412E3,1.539E3,4.1388E4],"tree_param":{"num_deleted":"0","num_feature":"5","num_nodes":"7","size_leaf_vector":"0"}},{"base_weights":[-8.305068E-2,-2.2524104E-1,-8.3023615E-2,3.4966186E-2,-8.306365E-2],"categories":[],"categories_nodes":[],"categories_segments":[],"categories_sizes":[],"default_left":[true,false,true,false,false],"id":35,"left_children":[1,-1,3,-1,-1],"loss_changes":[1.5484619E-1,0E0,2.1594238E-1,0E0,0E0],"parents":[2147483647,0,0,2,2],"right_children":[2,-1,4,-1,-1],"split_conditions":[-5.070057E-1,-1.1262052E-2,-4.379874E-1,1.7483094E-3,-4.1531823E-3],"split_indices":[0,0,0,0,0],"split_type":[0,0,0,0,0],"sum_hessian":[4.5099E4,7E0,4.5092E4,1.5E1,4.5077E4],"tree_param":{"num_deleted":"0","num_feature":"5","num_nodes":"5","size_leaf_vector":"0"}},{"base_weights":[-7.8453414E-2,-5.6573234E-2,-7.8655064E-2,4.1369405E-3,-5.980316E-2,-7.872474E-2,-5.0862666E-2],"categories":[],"categories_nodes":[],"categories_segments":[],"categories_sizes":[],"default_left":[true,true,true,false,false,false,false],"id":36,"left_children":[1,3,5,-1,-1,-1,-1],"loss_changes":[1.953125E-1,8.201659E-2,8.2855225E-2,0E0,0E0,0E0,0E0],"parents":[2147483647,0,0,1,1,2,2],"right_children":[2,4,6,-1,-1,-1,-1],"split_conditions":[-2.9804426E-1,-4.5281285E-1,3.703165E-1,2.0684702E-4,-2.990158E-3,-3.936237E-3,-2.5431335E-3],"split_indices":[0,3,1,0,0,0,0],"split_type":[0,0,0,0,0,0,0],"sum_hessian":[4.5273E4,4.16E2,4.4857E4,2.1E1,3.95E2,4.4743E4,1.14E2],"tree_param":{"num_deleted":"0","num_feature":"5","num_nodes":"7","size_leaf_vector":"0"}},{"base_weights":[-7.503838E-2,-6.021034E-2,-7.524643E-2,-1.8456237E-1,-5.8711667E-2,-7.8042135E-2,-7.425231E-2],"categories":[],"categories_nodes":[],"categories_segments":[],"categories_sizes":[],"default_left":[true,true,true,false,false,false,false],"id":37,"left_children":[1,3,5,-1,-1,-1,-1],"loss_changes":[1.3414001E-1,1.0601354E-1,1.1740112E-1,0E0,0E0,0E0,0E0],"parents":[2147483647,0,0,1,1,2,2],"right_children":[2,4,6,-1,-1,-1,-1],"split_conditions":[-2.744471E-1,-5.0873566E-1,-2.95573E-2,-9.228119E-3,-2.9355835E-3,-3.9021068E-3,-3.7126155E-3],"split_indices":[0,0,2,0,0,0,0],"split_type":[0,0,0,0,0,0,0],"sum_hessian":[4.4952E4,6.26E2,4.4326E4,6E0,6.2E2,1.1607E4,3.2719E4],"tree_param":{"num_deleted":"0","num_feature":"5","num_nodes":"7","size_leaf_vector":"0"}},{"base_weights":[-7.128824E-2,-5.8010705E-2,-7.1515396E-2,-1.8418862E-1,-5.6764007E-2,-7.16273E-2,-4.5512225E-2],"categories":[],"categories_nodes":[],"categories_segments":[],"categories_sizes":[],"default_left":[true,true,true,false,false,false,false],"id":38,"left_children":[1,3,5,-1,-1,-1,-1],"loss_changes":[1.3134766E-1,1.0925436E-1,1.2527466E-1,0E0,0E0,0E0,0E0],"parents":[2147483647,0,0,1,1,2,2],"right_children":[2,4,6,-1,-1,-1,-1],"split_conditions":[-2.570901E-1,-5.1394117E-1,3.4528768E-1,-9.209431E-3,-2.8382004E-3,-3.5813649E-3,-2.2756113E-3],"split_indices":[4,0,1,0,0,0,0],"split_type":[0,0,0,0,0,0,0],"sum_hessian":[4.4927E4,7.6E2,4.4167E4,6E0,7.54E2,4.3976E4,1.91E2],"tree_param":{"num_deleted":"0","num_feature":"5","num_nodes":"7","size_leaf_vector":"0"}},{"base_weights":[-6.774498E-2,-6.782951E-2,-4.720654E-2,-6.7567065E-2,-7.4853644E-2,6.073188E-3,-5.2538868E-2],"categories":[],"categories_nodes":[],"categories_segments":[],"categories_sizes":[],"default_left":[true,true,true,false,false,false,false],"id":39,"left_children":[1,3,5,-1,-1,-1,-1],"loss_changes":[7.5027466E-2,7.7682495E-2,5.3730845E-2,0E0,0E0,0E0,0E0],"parents":[2147483647,0,0,1,1,2,2],"right_children":[2,4,6,-1,-1,-1,-1],"split_conditions":[3.4775954E-1,2.0154008E-1,3.5279602E-1,-3.3783533E-3,-3.7426823E-3,3.036594E-4,-2.6269434E-3],"split_indices":[3,4,3,0,0,0,0],"split_type":[0,0,0,0,0,0,0],"sum_hessian":[4.506E4,4.4873E4,1.87E2,4.3267E4,1.606E3,1.7E1,1.7E2],"tree_param":{"num_deleted":"0","num_feature":"5","num_nodes":"7","size_leaf_vector":"0"}},{"base_weights":[-6.461428E-2,-5.753722E-2,-6.505167E-2,-1.9845748E-1,-5.7245772E-2,-7.114427E-2,-6.4059265E-2],"categories":[],"categories_nodes":[],"categories_segments":[],"categories_sizes":[],"default_left":[true,true,true,false,false,false,false],"id":40,"left_children":[1,3,5,-1,-1,-1,-1],"loss_changes":[1.3508606E-1,9.620476E-2,2.507782E-1,0E0,0E0,0E0,0E0],"parents":[2147483647,0,0,1,1,2,2],"right_children":[2,4,6,-1,-1,-1,-1],"split_conditions":[-1.6617021E-1,-5.594294E-1,-5.968281E-2,-9.922874E-3,-2.8622886E-3,-3.5572133E-3,-3.2029634E-3],"split_indices":[4,0,2,0,0,0,0],"split_type":[0,0,0,0,0,0,0],"sum_hessian":[4.4846E4,2.618E3,4.2228E4,4E0,2.614E3,5.905E3,3.6323E4],"tree_param":{"num_deleted":"0","num_feature":"5","num_nodes":"7","size_leaf_vector":"0"}},{"base_weights":[-6.081156E-2,-6.0858153E-2,-9.55701E-3,-6.0626775E-2,-7.2469965E-2,6.2816605E-2,-5.2091118E-2],"categories":[],"categories_nodes":[],"categories_segments":[],"categories_sizes":[],"default_left":[true,true,true,false,false,false,false],"id":41,"left_children":[1,3,5,-1,-1,-1,-1],"loss_changes":[1.0673523E-1,1.162262E-1,1.3256277E-1,0E0,0E0,0E0,0E0],"parents":[2147483647,0,0,1,1,2,2],"right_children":[2,4,6,-1,-1,-1,-1],"split_conditions":[4.212459E-1,2.4882874E-1,3.9530843E-1,-3.0313388E-3,-3.6234984E-3,3.1408302E-3,-2.604556E-3],"split_indices":[0,4,4,0,0,0,0],"split_type":[0,0,0,0,0,0,0],"sum_hessian":[4.4936E4,4.4895E4,4.1E1,4.4024E4,8.71E2,1.5E1,2.6E1],"tree_param":{"num_deleted":"0","num_feature":"5","num_nodes":"7","size_leaf_vector":"0"}},{"base_weights":[-5.765778E-2,-5.7082098E-2,-6.3879296E-2,-5.744029E-2,-4.587814E-2,-7.110231E-2,-5.8663722E-2],"categories":[],"categories_nodes":[],"categories_segments":[],"categories_sizes":[],"default_left":[true,true,true,false,false,false,false],"id":42,"left_children":[1,3,5,-1,-1,-1,-1],"loss_changes":[1.5774536E-1,1.6293335E-1,1.3928413E-1,0E0,0E0,0E0,0E0],"parents":[2147483647,0,0,1,1,2,2],"right_children":[2,4,6,-1,-1,-1,-1],"split_conditions":[1.3285372E-1,1.1461316E-1,1.7561157E-1,-2.8720144E-3,-2.2939069E-3,-3.5551158E-3,-2.9331862E-3],"split_indices":[4,1,1,0,0,0,0],"split_type":[0,0,0,0,0,0,0],"sum_hessian":[4.506E4,4.1253E4,3.807E3,3.9971E4,1.282E3,1.591E3,2.216E3],"tree_param":{"num_deleted":"0","num_feature":"5","num_nodes":"7","size_leaf_vector":"0"}},{"base_weights":[-5.5071782E-2,-5.4258868E-2,-6.0043503E-2,-5.493814E-2,-4.747001E-2,-6.454397E-2,-5.7227578E-2],"categories":[],"categories_nodes":[],"categories_segments":[],"categories_sizes":[],"default_left":[true,true,true,false,false,false,false],"id":43,"left_children":[1,3,5,-1,-1,-1,-1],"loss_changes":[1.791687E-1,1.7634583E-1,7.657623E-2,0E0,0E0,0E0,0E0],"parents":[2147483647,0,0,1,1,2,2],"right_children":[2,4,6,-1,-1,-1,-1],"split_conditions":[8.410165E-2,4.5894384E-2,1.1677013E-1,-2.746907E-3,-2.3735005E-3,-3.2271985E-3,-2.861379E-3],"split_indices":[4,3,0,0,0,0,0],"split_type":[0,0,0,0,0,0,0],"sum_hessian":[4.5138E4,3.8805E4,6.333E3,3.5269E4,3.536E3,2.429E3,3.904E3],"tree_param":{"num_deleted":"0","num_feature":"5","num_nodes":"7","size_leaf_vector":"0"}},{"base_weights":[-5.1916897E-2,-5.2003767E-2,-1.7818797E-2,-4.4740953E-2,-5.2405305E-2,4.8646783E-3,-7.266908E-2],"categories":[],"categories_nodes":[],"categories_segments":[],"categories_sizes":[],"default_left":[true,true,true,false,false,false,false],"id":44,"left_children":[1,3,5,-1,-1,-1,-1],"loss_changes":[1.3251495E-1,1.2870026E-1,1.4468014E-1,0E0,0E0,0E0,0E0],"parents":[2147483647,0,0,1,1,2,2],"right_children":[2,4,6,-1,-1,-1,-1],"split_conditions":[3.7119138E-1,-1.7375797E-1,4.1910768E-1,-2.2370478E-3,-2.6202654E-3,2.4323391E-4,-3.6334542E-3],"split_indices":[0,4,4,0,0,0,0],"split_type":[0,0,0,0,0,0,0],"sum_hessian":[4.5049E4,4.4934E4,1.15E2,2.36E3,4.2574E4,8.2E1,3.3E1],"tree_param":{"num_deleted":"0","num_feature":"5","num_nodes":"7","size_leaf_vector":"0"}},{"base_weights":[-5.0267402E-2,-3.547784E-2,-5.0493255E-2,4.27928E-2,-3.7069898E-2,-5.0073083E-2,-5.600156E-2],"categories":[],"categories_nodes":[],"categories_segments":[],"categories_sizes":[],"default_left":[true,true,true,false,false,false,false],"id":45,"left_children":[1,3,5,-1,-1,-1,-1],"loss_changes":[1.4824677E-1,8.6197495E-2,9.958649E-2,0E0,0E0,0E0,0E0],"parents":[2147483647,0,0,1,1,2,2],"right_children":[2,4,6,-1,-1,-1,-1],"split_conditions":[-2.6992387E-1,-4.6943992E-1,1.5326712E-1,2.13964E-3,-1.8534949E-3,-2.5036542E-3,-2.800078E-3],"split_indices":[1,4,4,0,0,0,0],"split_type":[0,0,0,0,0,0,0],"sum_hessian":[4.4917E4,6.78E2,4.4239E4,1.3E1,6.65E2,4.1113E4,3.126E3],"tree_param":{"num_deleted":"0","num_feature":"5","num_nodes":"7","size_leaf_vector":"0"}},{"base_weights":[-4.7090847E-2,-4.639442E-2,-5.1625695E-2,-4.718996E-2,-4.054716E-2,-5.4188732E-2,-4.635065E-2],"categories":[],"categories_nodes":[],"categories_segments":[],"categories_sizes":[],"default_left":[true,true,true,false,false,false,false],"id":46,"left_children":[1,3,5,-1,-1,-1,-1],"loss_changes":[1.4102936E-1,1.8126678E-1,7.910919E-2,0E0,0E0,0E0,0E0],"parents":[2147483647,0,0,1,1,2,2],"right_children":[2,4,6,-1,-1,-1,-1],"split_conditions":[9.165573E-2,4.0413752E-2,1.8925308E-1,-2.359498E-3,-2.027358E-3,-2.7094367E-3,-2.3175327E-3],"split_indices":[4,3,0,0,0,0,0],"split_type":[0,0,0,0,0,0,0],"sum_hessian":[4.5413E4,3.9377E4,6.036E3,3.4655E4,4.722E3,4.056E3,1.98E3],"tree_param":{"num_deleted":"0","num_feature":"5","num_nodes":"7","size_leaf_vector":"0"}},{"base_weights":[-4.4825923E-2,-3.1227874E-2,-4.5059938E-2,-3.5434105E-2,-3.6862772E-3,-7.330406E-2,-4.496658E-2],"categories":[],"categories_nodes":[],"categories_segments":[],"categories_sizes":[],"default_left":[true,true,true,false,false,false,false],"id":47,"left_children":[1,3,5,-1,-1,-1,-1],"loss_changes":[1.426239E-1,8.895522E-2,1.140213E-1,0E0,0E0,0E0,0E0],"parents":[2147483647,0,0,1,1,2,2],"right_children":[2,4,6,-1,-1,-1,-1],"split_conditions":[-2.5806174E-1,-2.6762664E-1,-2.5055587E-1,-1.7717052E-3,-1.8431386E-4,-3.665203E-3,-2.2483289E-3],"split_indices":[0,0,1,0,0,0,0],"split_type":[0,0,0,0,0,0,0],"sum_hessian":[4.526E4,7.68E2,4.4492E4,6.66E2,1.02E2,1.44E2,4.4348E4],"tree_param":{"num_deleted":"0","num_feature":"5","num_nodes":"7","size_leaf_vector":"0"}},{"base_weights":[-4.2982947E-2,-4.306567E-2,-7.79535E-3,-3.0820496E-2,-4.3234948E-2,1.6097862E-2,-4.9868077E-2],"categories":[],"categories_nodes":[],"categories_segments":[],"categories_sizes":[],"default_left":[true,true,true,false,false,false,false],"id":48,"left_children":[1,3,5,-1,-1,-1,-1],"loss_changes":[1.309433E-1,9.1926575E-2,1.0836479E-1,0E0,0E0,0E0,0E0],"parents":[2147483647,0,0,1,1,2,2],"right_children":[2,4,6,-1,-1,-1,-1],"split_conditions":[3.691898E-1,-2.7464324E-1,4.0836456E-1,-1.5410249E-3,-2.1617475E-3,8.0489315E-4,-2.4934039E-3],"split_indices":[1,0,3,0,0,0,0],"split_type":[0,0,0,0,0,0,0],"sum_hessian":[4.5099E4,4.4993E4,1.06E2,6.16E2,4.4377E4,6.8E1,3.8E1],"tree_param":{"num_deleted":"0","num_feature":"5","num_nodes":"7","size_leaf_vector":"0"}},{"base_weights":[-4.0281836E-2,-1.734277E-1,-4.0254194E-2,-7.464786E-2,-1.9098653E-1,8.343305E-2,-4.028367E-2],"categories":[],"categories_nodes":[],"categories_segments":[],"categories_sizes":[],"default_left":[true,true,true,false,false,false,false],"id":49,"left_children":[1,3,5,-1,-1,-1,-1],"loss_changes":[1.5795898E-1,1.3533831E-3,1.6669464E-1,0E0,0E0,0E0,0E0],"parents":[2147483647,0,0,1,1,2,2],"right_children":[2,4,6,-1,-1,-1,-1],"split_conditions":[-5.1394117E-1,-5.861769E-1,-4.6952483E-1,-3.732393E-3,-9.549326E-3,4.1716523E-3,-2.0141834E-3],"split_indices":[1,3,1,0,0,0,0],"split_type":[0,0,0,0,0,0,0],"sum_hessian":[4.4815E4,8E0,4.4807E4,2E0,6E0,1E1,4.4797E4],"tree_param":{"num_deleted":"0","num_feature":"5","num_nodes":"7","size_leaf_vector":"0"}},{"base_weights":[-3.84212E-2,-4.1074045E-2,-3.742946E-2,-3.343926E-2,-4.2870216E-2,-3.286323E-2,-3.8140647E-2],"categories":[],"categories_nodes":[],"categories_segments":[],"categories_sizes":[],"default_left":[true,true,true,false,false,false,false],"id":50,"left_children":[1,3,5,-1,-1,-1,-1],"loss_changes":[1.1701965E-1,1.6658401E-1,1.053009E-1,0E0,0E0,0E0,0E0],"parents":[2147483647,0,0,1,1,2,2],"right_children":[2,4,6,-1,-1,-1,-1],"split_conditions":[-3.0457895E-2,-1.7702314E-1,-1.957804E-2,-1.671963E-3,-2.1435109E-3,-1.6431615E-3,-1.9070323E-3],"split_indices":[3,4,0,0,0,0,0],"split_type":[0,0,0,0,0,0,0],"sum_hessian":[4.5062E4,1.2251E4,3.2811E4,2.337E3,9.914E3,4.428E3,2.8383E4],"tree_param":{"num_deleted":"0","num_feature":"5","num_nodes":"7","size_leaf_vector":"0"}},{"base_weights":[-3.7098315E-2,-1.7348708E-1,-3.707321E-2,-7.104496E-2,-1.9579363E-1,5.1308855E-2,-3.7111733E-2],"categories":[],"categories_nodes":[],"categories_segments":[],"categories_sizes":[],"default_left":[true,true,true,false,false,false,false],"id":51,"left_children":[1,3,5,-1,-1,-1,-1],"loss_changes":[1.4746857E-1,4.370898E-3,1.5491867E-1,0E0,0E0,0E0,0E0],"parents":[2147483647,0,0,1,1,2,2],"right_children":[2,4,6,-1,-1,-1,-1],"split_conditions":[-5.1114374E-1,-5.861769E-1,-4.4350255E-1,-3.552248E-3,-9.789682E-3,2.5654428E-3,-1.8555867E-3],"split_indices":[0,3,4,0,0,0,0],"split_type":[0,0,0,0,0,0,0],"sum_hessian":[4.495E4,7E0,4.4943E4,2E0,5E0,1.9E1,4.4924E4],"tree_param":{"num_deleted":"0","num_feature":"5","num_nodes":"7","size_leaf_vector":"0"}},{"base_weights":[-3.4716405E-2,-2.5947869E-2,-3.502324E-2,-2.8429536E-2,-7.7156695E-3,-9.0041876E-2,-3.496635E-2],"categories":[],"categories_nodes":[],"categories_segments":[],"categories_sizes":[],"default_left":[true,true,true,false,false,false,false],"id":52,"left_children":[1,3,5,-1,-1,-1,-1],"loss_changes":[1.1942291E-1,6.837392E-2,1.3210297E-1,0E0,0E0,0E0,0E0],"parents":[2147483647,0,0,1,1,2,2],"right_children":[2,4,6,-1,-1,-1,-1],"split_conditions":[-2.133295E-1,-2.070524E-1,-2.1101868E-1,-1.4214768E-3,-3.8578347E-4,-4.502094E-3,-1.7483175E-3],"split_indices":[1,3,1,0,0,0,0],"split_type":[0,0,0,0,0,0,0],"sum_hessian":[4.4724E4,1.515E3,4.3209E4,1.333E3,1.82E2,4.3E1,4.3166E4],"tree_param":{"num_deleted":"0","num_feature":"5","num_nodes":"7","size_leaf_vector":"0"}},{"base_weights":[-3.2498147E-2,-2.1402352E-2,-3.2852855E-2,-2.6446374E-2,2.2786835E-3,-3.8371027E-2,-3.249081E-2],"categories":[],"categories_nodes":[],"categories_segments":[],"categories_sizes":[],"default_left":[true,true,true,false,false,false,false],"id":53,"left_children":[1,3,5,-1,-1,-1,-1],"loss_changes":[1.755333E-1,1.6609257E-1,8.544159E-2,0E0,0E0,0E0,0E0],"parents":[2147483647,0,0,1,1,2,2],"right_children":[2,4,6,-1,-1,-1,-1],"split_conditions":[-2.2111736E-1,-2.0990536E-1,-1.2542501E-1,-1.3223187E-3,1.1393418E-4,-1.9185514E-3,-1.6245404E-3],"split_indices":[4,1,0,0,0,0,0],"split_type":[0,0,0,0,0,0,0],"sum_hessian":[4.4778E4,1.389E3,4.3389E4,1.145E3,2.44E2,2.665E3,4.0724E4],"tree_param":{"num_deleted":"0","num_feature":"5","num_nodes":"7","size_leaf_vector":"0"}},{"base_weights":[-3.169515E-2,-3.126731E-2,-3.6465876E-2,-3.158805E-2,-2.0268237E-2,-4.252345E-2,-2.9878668E-2],"categories":[],"categories_nodes":[],"categories_segments":[],"categories_sizes":[],"default_left":[true,true,true,false,false,false,false],"id":54,"left_children":[1,3,5,-1,-1,-1,-1],"loss_changes":[9.062195E-2,1.4493942E-1,1.4612913E-1,0E0,0E0,0E0,0E0],"parents":[2147483647,0,0,1,1,2,2],"right_children":[2,4,6,-1,-1,-1,-1],"split_conditions":[1.3655373E-1,1.2645483E-1,1.9274029E-1,-1.5794026E-3,-1.0134119E-3,-2.1261727E-3,-1.4939335E-3],"split_indices":[4,0,0,0,0,0,0],"split_type":[0,0,0,0,0,0,0],"sum_hessian":[4.4957E4,4.1264E4,3.693E3,4.0093E4,1.171E3,1.921E3,1.772E3],"tree_param":{"num_deleted":"0","num_feature":"5","num_nodes":"7","size_leaf_vector":"0"}},{"base_weights":[-2.972471E-2,-2.2610648E-2,-3.010294E-2,-2.658023E-2,-1.2501425E-2,-4.0432606E-2,-2.9746765E-2],"categories":[],"categories_nodes":[],"categories_segments":[],"categories_sizes":[],"default_left":[true,true,true,false,false,false,false],"id":55,"left_children":[1,3,5,-1,-1,-1,-1],"loss_changes":[1.2105942E-1,9.148383E-2,1.5683746E-1,0E0,0E0,0E0,0E0],"parents":[2147483647,0,0,1,1,2,2],"right_children":[2,4,6,-1,-1,-1,-1],"split_conditions":[-1.7731565E-1,-1.9632715E-1,-1.3541156E-1,-1.3290115E-3,-6.250713E-4,-2.0216303E-3,-1.4873383E-3],"split_indices":[4,1,1,0,0,0,0],"split_type":[0,0,0,0,0,0,0],"sum_hessian":[4.5242E4,2.287E3,4.2955E4,1.641E3,6.46E2,1.428E3,4.1527E4],"tree_param":{"num_deleted":"0","num_feature":"5","num_nodes":"7","size_leaf_vector":"0"}},{"base_weights":[-2.7618919E-2,-2.7177397E-2,-3.3713527E-2,-2.7578851E-2,-1.5283371E-2,-4.3646164E-2,-2.8040117E-2],"categories":[],"categories_nodes":[],"categories_segments":[],"categories_sizes":[],"default_left":[true,true,true,false,false,false,false],"id":56,"left_children":[1,3,5,-1,-1,-1,-1],"loss_changes":[1.1986923E-1,1.9945717E-1,1.6940999E-1,0E0,0E0,0E0,0E0],"parents":[2147483647,0,0,1,1,2,2],"right_children":[2,4,6,-1,-1,-1,-1],"split_conditions":[1.5559302E-1,1.3071069E-1,1.8998568E-1,-1.3789426E-3,-7.6416857E-4,-2.1823084E-3,-1.4020059E-3],"split_indices":[4,0,2,0,0,0,0],"split_type":[0,0,0,0,0,0,0],"sum_hessian":[4.4886E4,4.1859E4,3.027E3,4.0491E4,1.368E3,1.098E3,1.929E3],"tree_param":{"num_deleted":"0","num_feature":"5","num_nodes":"7","size_leaf_vector":"0"}},{"base_weights":[-2.6959471E-2,-1.3428341E-1,-2.6942171E-2,-1.4764701E-1,-2.7050905E-2,-2.7028525E-2,-6.867397E-3],"categories":[],"categories_nodes":[],"categories_segments":[],"categories_sizes":[],"default_left":[true,true,true,false,false,false,false],"id":57,"left_children":[1,3,5,-1,-1,-1,-1],"loss_changes":[7.991791E-2,6.037101E-3,7.778549E-2,0E0,0E0,0E0,0E0],"parents":[2147483647,0,0,1,1,2,2],"right_children":[2,4,6,-1,-1,-1,-1],"split_conditions":[-5.1394117E-1,-5.2138543E-1,3.4612915E-1,-7.3823505E-3,-1.3525452E-3,-1.3514262E-3,-3.4336987E-4],"split_indices":[1,0,0,0,0,0,0],"split_type":[0,0,0,0,0,0,0],"sum_hessian":[4.4985E4,6E0,4.4979E4,5E0,1E0,4.4786E4,1.93E2],"tree_param":{"num_deleted":"0","num_feature":"5","num_nodes":"7","size_leaf_vector":"0"}},{"base_weights":[-2.5655577E-2,-1.3879769E-1,-2.5627488E-2,-1.51093E-1,-7.92221E-3,-2.5643535E-2,8.1691906E-2],"categories":[],"categories_nodes":[],"categories_segments":[],"categories_sizes":[],"default_left":[true,true,true,false,false,false,false],"id":58,"left_children":[1,3,5,-1,-1,-1,-1],"loss_changes":[1.4019012E-1,1.6503736E-2,7.9977036E-2,0E0,0E0,0E0,0E0],"parents":[2147483647,0,0,1,1,2,2],"right_children":[2,4,6,-1,-1,-1,-1],"split_conditions":[-5.070057E-1,-4.3961868E-1,4.6881932E-1,-7.5546503E-3,-3.961105E-4,-1.2821768E-3,4.0845955E-3],"split_indices":[0,2,1,0,0,0,0],"split_type":[0,0,0,0,0,0,0],"sum_hessian":[4.5231E4,1E1,4.5221E4,9E0,1E0,4.5215E4,6E0],"tree_param":{"num_deleted":"0","num_feature":"5","num_nodes":"7","size_leaf_vector":"0"}},{"base_weights":[-2.3933206E-2,-1.4821737E-2,-2.4239952E-2,-5.813164E-2,-1.3570495E-2,-3.7145907E-1,-2.4223473E-2],"categories":[],"categories_nodes":[],"categories_segments":[],"categories_sizes":[],"default_left":[true,true,true,false,false,false,false],"id":59,"left_children":[1,3,5,-1,-1,-1,-1],"loss_changes":[1.256504E-1,7.8926355E-2,2.4054527E-1,0E0,0E0,0E0,0E0],"parents":[2147483647,0,0,1,1,2,2],"right_children":[2,4,6,-1,-1,-1,-1],"split_conditions":[-2.1681067E-1,-4.164836E-1,-2.1674159E-1,-2.906582E-3,-6.785248E-4,-1.8572954E-2,-1.2111737E-3],"split_indices":[4,0,4,0,0,0,0],"split_type":[0,0,0,0,0,0,0],"sum_hessian":[4.5085E4,1.47E3,4.3615E4,4E1,1.43E3,1E0,4.3614E4],"tree_param":{"num_deleted":"0","num_feature":"5","num_nodes":"7","size_leaf_vector":"0"}},{"base_weights":[-2.325432E-2,-2.2868136E-2,-2.8468214E-2,-2.3044193E-2,2.7393615E-3,-4.3421347E-2,-2.5778448E-2],"categories":[],"categories_nodes":[],"categories_segments":[],"categories_sizes":[],"default_left":[true,true,true,false,false,false,false],"id":60,"left_children":[1,3,5,-1,-1,-1,-1],"loss_changes":[8.995247E-2,1.8896484E-1,1.2352395E-1,0E0,0E0,0E0,0E0],"parents":[2147483647,0,0,1,1,2,2],"right_children":[2,4,6,-1,-1,-1,-1],"split_conditions":[1.5372074E-1,1.7490868E-1,1.638129E-1,-1.1522097E-3,1.3696808E-4,-2.1710673E-3,-1.2889224E-3],"split_indices":[4,1,3,0,0,0,0],"split_type":[0,0,0,0,0,0,0],"sum_hessian":[4.4997E4,4.1899E4,3.098E3,4.1613E4,2.86E2,4.7E2,2.628E3],"tree_param":{"num_deleted":"0","num_feature":"5","num_nodes":"7","size_leaf_vector":"0"}},{"base_weights":[-2.1556897E-2,-2.1518786E-2,-7.456761E-2,-2.1559838E-2,6.758505E-2,-1.0383122E-1,-3.881454E-2],"categories":[],"categories_nodes":[],"categories_segments":[],"categories_sizes":[],"default_left":[true,true,true,false,false,false,false],"id":61,"left_children":[1,3,5,-1,-1,-1,-1],"loss_changes":[8.952522E-2,1.6634178E-1,2.9450297E-2,0E0,0E0,0E0,0E0],"parents":[2147483647,0,0,1,1,2,2],"right_children":[2,4,6,-1,-1,-1,-1],"split_conditions":[4.3236595E-1,4.1515738E-1,4.431926E-1,-1.0779919E-3,3.3792525E-3,-5.191561E-3,-1.9407271E-3],"split_indices":[4,1,1,0,0,0,0],"split_type":[0,0,0,0,0,0,0],"sum_hessian":[4.5106E4,4.5075E4,3.1E1,4.5055E4,2E1,1.6E1,1.5E1],"tree_param":{"num_deleted":"0","num_feature":"5","num_nodes":"7","size_leaf_vector":"0"}},{"base_weights":[-2.0441072E-2,-1.2238154E-2,-2.0712478E-2,-1.4150987E-2,4.2507835E-2,-2.5563316E-2,-2.0420069E-2],"categories":[],"categories_nodes":[],"categories_segments":[],"categories_sizes":[],"default_left":[true,true,true,false,false,false,false],"id":62,"left_children":[1,3,5,-1,-1,-1,-1],"loss_changes":[9.9954605E-2,1.5181714E-1,6.1275482E-2,0E0,0E0,0E0,0E0],"parents":[2147483647,0,0,1,1,2,2],"right_children":[2,4,6,-1,-1,-1,-1],"split_conditions":[-2.2001745E-1,-2.2251624E-1,-1.2892309E-1,-7.075494E-4,2.1253917E-3,-1.2781658E-3,-1.0210035E-3],"split_indices":[4,4,4,0,0,0,0],"split_type":[0,0,0,0,0,0,0],"sum_hessian":[4.501E4,1.443E3,4.3567E4,1.395E3,4.8E1,2.472E3,4.1095E4],"tree_param":{"num_deleted":"0","num_feature":"5","num_nodes":"7","size_leaf_vector":"0"}},{"base_weights":[-2.001E-2,-2.2310184E-2,-1.9299282E-2,-2.0313803E-2,-2.492772E-2,-8.268478E-3,-1.95972E-2],"categories":[],"categories_nodes":[],"categories_segments":[],"categories_sizes":[],"default_left":[true,true,true,false,false,false,false],"id":63,"left_children":[1,3,5,-1,-1,-1,-1],"loss_changes":[7.3135376E-2,5.4968834E-2,1.1284065E-1,0E0,0E0,0E0,0E0],"parents":[2147483647,0,0,1,1,2,2],"right_children":[2,4,6,-1,-1,-1,-1],"split_conditions":[-4.1185215E-2,-8.871557E-2,-7.96007E-2,-1.0156902E-3,-1.2463861E-3,-4.1342393E-4,-9.798601E-4],"split_indices":[4,4,0,0,0,0,0],"split_type":[0,0,0,0,0,0,0],"sum_hessian":[4.5E4,1.0615E4,3.4385E4,6.027E3,4.588E3,9.05E2,3.348E4],"tree_param":{"num_deleted":"0","num_feature":"5","num_nodes":"7","size_leaf_vector":"0"}},{"base_weights":[-1.8632568E-2,-1.2166639E-1,-1.8611444E-2,-4.8245266E-2,-1.5033607E-1,-1.8644124E-2,4.3108042E-2],"categories":[],"categories_nodes":[],"categories_segments":[],"categories_sizes":[],"default_left":[true,true,true,false,false,false,false],"id":64,"left_children":[1,3,5,-1,-1,-1,-1],"loss_changes":[9.521675E-2,1.1691645E-2,9.1124535E-2,0E0,0E0,0E0,0E0],"parents":[2147483647,0,0,1,1,2,2],"right_children":[2,4,6,-1,-1,-1,-1],"split_conditions":[-5.1394117E-1,-5.5999565E-1,4.431926E-1,-2.4122633E-3,-7.5168037E-3,-9.322062E-4,2.1554022E-3],"split_indices":[1,3,1,0,0,0,0],"split_type":[0,0,0,0,0,0,0],"sum_hessian":[4.4787E4,8E0,4.4779E4,3E0,5E0,4.4756E4,2.3E1],"tree_param":{"num_deleted":"0","num_feature":"5","num_nodes":"7","size_leaf_vector":"0"}},{"base_weights":[-1.7606674E-2,-1.16386004E-1,-1.7586581E-2,-1.2997724E-1,-3.828039E-3,9.625073E-2,-1.761395E-2],"categories":[],"categories_nodes":[],"categories_segments":[],"categories_sizes":[],"default_left":[true,true,true,false,false,false,false],"id":65,"left_children":[1,3,5,-1,-1,-1,-1],"loss_changes":[8.7524414E-2,1.3270669E-2,1.42272E-1,0E0,0E0,0E0,0E0],"parents":[2147483647,0,0,1,1,2,2],"right_children":[2,4,6,-1,-1,-1,-1],"split_conditions":[-5.1057994E-1,-4.3961868E-1,-4.694649E-1,-6.498862E-3,-1.9140195E-4,4.8125363E-3,-8.8069745E-4],"split_indices":[0,2,2,0,0,0,0],"split_type":[0,0,0,0,0,0,0],"sum_hessian":[4.5128E4,8E0,4.512E4,7E0,1E0,1E1,4.511E4],"tree_param":{"num_deleted":"0","num_feature":"5","num_nodes":"7","size_leaf_vector":"0"}},{"base_weights":[-1.6921885E-2,-1.9236047E-2,-1.6045522E-2,-6.3017774E-3,-1.995966E-2,-6.8684197E-3,-1.6281119E-2],"categories":[],"categories_nodes":[],"categories_segments":[],"categories_sizes":[],"default_left":[true,true,true,false,false,false,false],"id":66,"left_children":[1,3,5,-1,-1,-1,-1],"loss_changes":[9.108353E-2,1.1567831E-1,7.0570946E-2,0E0,0E0,0E0,0E0],"parents":[2147483647,0,0,1,1,2,2],"right_children":[2,4,6,-1,-1,-1,-1],"split_conditions":[-2.934022E-2,-2.6988333E-1,-6.8278715E-2,-3.1508887E-4,-9.97983E-4,-3.4342098E-4,-8.1405597E-4],"split_indices":[3,0,0,0,0,0,0],"split_type":[0,0,0,0,0,0,0],"sum_hessian":[4.5063E4,1.2372E4,3.2691E4,6.56E2,1.1716E4,8.19E2,3.1872E4],"tree_param":{"num_deleted":"0","num_feature":"5","num_nodes":"7","size_leaf_vector":"0"}},{"base_weights":[-1.5684936E-2,5.8543243E-2,-1.5717346E-2,-1.1486827E-1,1.2400497E-1,-1.578744E-2,1.2466216E-2],"categories":[],"categories_nodes":[],"categories_segments":[],"categories_sizes":[],"default_left":[true,true,true,false,false,false,false],"id":67,"left_children":[1,3,5,-1,-1,-1,-1],"loss_changes":[1.0999775E-1,2.4128056E-1,8.9733124E-2,0E0,0E0,0E0,0E0],"parents":[2147483647,0,0,1,1,2,2],"right_children":[2,4,6,-1,-1,-1,-1],"split_conditions":[-4.5235217E-1,-5.1057994E-1,3.694706E-1,-5.7434137E-3,6.2002484E-3,-7.8937196E-4,6.2331086E-4],"split_indices":[4,3,0,0,0,0,0],"split_type":[0,0,0,0,0,0,0],"sum_hessian":[4.5341E4,1.9E1,4.5322E4,5E0,1.4E1,4.521E4,1.12E2],"tree_param":{"num_deleted":"0","num_feature":"5","num_nodes":"7","size_leaf_vector":"0"}},{"base_weights":[-1.5123254E-2,-1.4854319E-2,-2.2661857E-2,-1.5149472E-2,-3.3421838E-3,-2.5585877E-2,-8.541991E-4],"categories":[],"categories_nodes":[],"categories_segments":[],"categories_sizes":[],"default_left":[true,true,true,false,false,false,false],"id":68,"left_children":[1,3,5,-1,-1,-1,-1],"loss_changes":[9.1358185E-2,1.4834309E-1,9.91981E-2,0E0,0E0,0E0,0E0],"parents":[2147483647,0,0,1,1,2,2],"right_children":[2,4,6,-1,-1,-1,-1],"split_conditions":[2.1310797E-1,1.7544821E-1,3.484441E-1,-7.5747364E-4,-1.6710919E-4,-1.2792939E-3,-4.2709955E-5],"split_indices":[4,0,0,0,0,0,0],"split_type":[0,0,0,0,0,0,0],"sum_hessian":[4.5227E4,4.3672E4,1.555E3,4.258E4,1.092E3,1.371E3,1.84E2],"tree_param":{"num_deleted":"0","num_feature":"5","num_nodes":"7","size_leaf_vector":"0"}},{"base_weights":[-1.4344299E-2,-1.43266115E-2,-1.2618762E-1,-1.4357878E-2,9.515143E-2],"categories":[],"categories_nodes":[],"categories_segments":[],"categories_sizes":[],"default_left":[true,true,false,false,false],"id":69,"left_children":[1,3,-1,-1,-1],"loss_changes":[8.737087E-2,1.5565014E-1,0E0,0E0,0E0],"parents":[2147483647,0,0,1,1],"right_children":[2,4,-1,-1,-1],"split_conditions":[5.260088E-1,4.7001368E-1,-6.309381E-3,-7.178939E-4,4.7575715E-3],"split_indices":[4,0,0,0,0],"split_type":[0,0,0,0,0],"sum_hessian":[4.5078E4,4.5072E4,6E0,4.506E4,1.2E1],"tree_param":{"num_deleted":"0","num_feature":"5","num_nodes":"5","size_leaf_vector":"0"}},{"base_weights":[-1.3460516E-2,-1.2919421E-2,-1.9421149E-2,-1.3250425E-2,2.8446151E-3,-2.6390512E-2,-1.2943153E-2],"categories":[],"categories_nodes":[],"categories_segments":[],"categories_sizes":[],"default_left":[true,true,true,false,false,false,false],"id":70,"left_children":[1,3,5,-1,-1,-1,-1],"loss_changes":[1.4414787E-1,2.1422434E-1,1.6778767E-1,0E0,0E0,0E0,0E0],"parents":[2147483647,0,0,1,1,2,2],"right_children":[2,4,6,-1,-1,-1,-1],"split_conditions":[1.3694468E-1,1.3183534E-1,1.91962E-1,-6.625213E-4,1.4223075E-4,-1.3195256E-3,-6.4715766E-4],"split_indices":[3,0,0,0,0,0,0],"split_type":[0,0,0,0,0,0,0],"sum_hessian":[4.477E4,4.1047E4,3.723E3,4.0203E4,8.44E2,1.792E3,1.931E3],"tree_param":{"num_deleted":"0","num_feature":"5","num_nodes":"7","size_leaf_vector":"0"}},{"base_weights":[-1.3359081E-2,-1.295207E-1,-1.3340722E-2,4.6911035E-3,-1.5267119E-1,8.764674E-2,-1.3365107E-2],"categories":[],"categories_nodes":[],"categories_segments":[],"categories_sizes":[],"default_left":[true,true,true,false,false,false,false],"id":71,"left_children":[1,3,5,-1,-1,-1,-1],"loss_changes":[9.429169E-2,2.2465684E-2,1.1203194E-1,0E0,0E0,0E0,0E0],"parents":[2147483647,0,0,1,1,2,2],"right_children":[2,4,6,-1,-1,-1,-1],"split_conditions":[-4.888448E-1,-5.861769E-1,-4.721651E-1,2.3455518E-4,-7.6335594E-3,4.382337E-3,-6.682553E-4],"split_indices":[0,4,4,0,0,0,0],"split_type":[0,0,0,0,0,0,0],"sum_hessian":[4.5023E4,6E0,4.5017E4,1E0,5E0,1E1,4.5007E4],"tree_param":{"num_deleted":"0","num_feature":"5","num_nodes":"7","size_leaf_vector":"0"}},{"base_weights":[-1.2559386E-2,-1.5501991E-2,-1.187937E-2,-9.782367E-3,-1.7996361E-2,4.599576E-2,-1.1920113E-2],"categories":[],"categories_nodes":[],"categories_segments":[],"categories_sizes":[],"default_left":[true,true,true,false,false,false,false],"id":72,"left_children":[1,3,5,-1,-1,-1,-1],"loss_changes":[9.0129375E-2,1.20649815E-1,8.7008E-2,0E0,0E0,0E0,0E0],"parents":[2147483647,0,0,1,1,2,2],"right_children":[2,4,6,-1,-1,-1,-1],"split_conditions":[-5.969226E-2,-1.661576E-1,-1.2177804E-1,-4.891184E-4,-8.998181E-4,2.2997882E-3,-5.9600564E-4],"split_indices":[0,0,1,0,0,0,0],"split_type":[0,0,0,0,0,0,0],"sum_hessian":[4.5133E4,8.468E3,3.6665E4,2.573E3,5.895E3,2.5E1,3.664E4],"tree_param":{"num_deleted":"0","num_feature":"5","num_nodes":"7","size_leaf_vector":"0"}},{"base_weights":[-1.19967405E-2,-1.1652867E-1,-1.1982561E-2,-3.440641E-2,-1.2607184E-1,4.1316766E-2,-1.2009503E-2],"categories":[],"categories_nodes":[],"categories_segments":[],"categories_sizes":[],"default_left":[true,true,true,false,false,false,false],"id":73,"left_children":[1,3,5,-1,-1,-1,-1],"loss_changes":[6.542635E-2,3.645569E-4,6.5227985E-2,0E0,0E0,0E0,0E0],"parents":[2147483647,0,0,1,1,2,2],"right_children":[2,4,6,-1,-1,-1,-1],"split_conditions":[-5.509192E-1,-5.905657E-1,-4.436647E-1,-1.7203204E-3,-6.303592E-3,2.0658383E-3,-6.004752E-4],"split_indices":[0,3,0,0,0,0,0],"split_type":[0,0,0,0,0,0,0],"sum_hessian":[4.5082E4,5E0,4.5077E4,1E0,4E0,2.2E1,4.5055E4],"tree_param":{"num_deleted":"0","num_feature":"5","num_nodes":"7","size_leaf_vector":"0"}},{"base_weights":[-1.1527738E-2,-1.3860832E-2,-1.0751269E-2,-6.699147E-3,-1.6074544E-2,-9.423473E-3,-1.3584913E-2],"categories":[],"categories_nodes":[],"categories_segments":[],"categories_sizes":[],"default_left":[true,true,true,false,false,false,false],"id":74,"left_children":[1,3,5,-1,-1,-1,-1],"loss_changes":[8.099985E-2,1.7717075E-1,1.2634468E-1,0E0,0E0,0E0,0E0],"parents":[2147483647,0,0,1,1,2,2],"right_children":[2,4,6,-1,-1,-1,-1],"split_conditions":[-3.688649E-2,-1.6687258E-1,3.1438462E-2,-3.3495735E-4,-8.037272E-4,-4.7117364E-4,-6.792456E-4],"split_indices":[4,4,0,0,0,0,0],"split_type":[0,0,0,0,0,0,0],"sum_hessian":[4.4794E4,1.1181E4,3.3613E4,2.641E3,8.54E3,2.2891E4,1.0722E4],"tree_param":{"num_deleted":"0","num_feature":"5","num_nodes":"7","size_leaf_vector":"0"}},{"base_weights":[-1.0630239E-2,2.2310314E-3,-1.0757155E-2,-9.1281064E-2,4.400543E-3,-1.0780222E-2,5.0103713E-2],"categories":[],"categories_nodes":[],"categories_segments":[],"categories_sizes":[],"default_left":[true,true,true,false,false,false,false],"id":75,"left_children":[1,3,5,-1,-1,-1,-1],"loss_changes":[7.3218346E-2,8.946405E-2,6.28767E-2,0E0,0E0,0E0,0E0],"parents":[2147483647,0,0,1,1,2,2],"right_children":[2,4,6,-1,-1,-1,-1],"split_conditions":[-2.9925036E-1,-5.1394117E-1,4.7251183E-1,-4.5640534E-3,2.2002716E-4,-5.390111E-4,2.5051858E-3],"split_indices":[0,0,0,0,0,0,0],"split_type":[0,0,0,0,0,0,0],"sum_hessian":[4.484E4,4.38E2,4.4402E4,9E0,4.29E2,4.4386E4,1.6E1],"tree_param":{"num_deleted":"0","num_feature":"5","num_nodes":"7","size_leaf_vector":"0"}},{"base_weights":[-9.693723E-3,-1.2560589E-2,-9.0356115E-3,-1.0408483E-2,-1.9568233E-2,3.4195646E-3,-9.451538E-3],"categories":[],"categories_nodes":[],"categories_segments":[],"categories_sizes":[],"default_left":[true,true,true,false,false,false,false],"id":76,"left_children":[1,3,5,-1,-1,-1,-1],"loss_changes":[8.46076E-2,1.2619185E-1,1.8924284E-1,0E0,0E0,0E0,0E0],"parents":[2147483647,0,0,1,1,2,2],"right_children":[2,4,6,-1,-1,-1,-1],"split_conditions":[-6.1012886E-2,-8.411388E-2,-8.007221E-2,-5.2042416E-4,-9.784116E-4,1.7097824E-4,-4.725769E-4],"split_indices":[4,4,0,0,0,0,0],"split_type":[0,0,0,0,0,0,0],"sum_hessian":[4.4903E4,8.38E3,3.6523E4,6.413E3,1.967E3,1.18E3,3.5343E4],"tree_param":{"num_deleted":"0","num_feature":"5","num_nodes":"7","size_leaf_vector":"0"}},{"base_weights":[-9.592785E-3,-3.401224E-3,-9.946284E-3,-8.394878E-3,6.2532616E-3,-1.6768046E-2,-9.410304E-3],"categories":[],"categories_nodes":[],"categories_segments":[],"categories_sizes":[],"default_left":[true,true,true,false,false,false,false],"id":77,"left_children":[1,3,5,-1,-1,-1,-1],"loss_changes":[9.8499775E-2,1.1735026E-1,1.555543E-1,0E0,0E0,0E0,0E0],"parents":[2147483647,0,0,1,1,2,2],"right_children":[2,4,6,-1,-1,-1,-1],"split_conditions":[-1.7369315E-1,-2.1032776E-1,-9.875962E-2,-4.197439E-4,3.126631E-4,-8.384023E-4,-4.705152E-4],"split_indices":[3,2,0,0,0,0,0],"split_type":[0,0,0,0,0,0,0],"sum_hessian":[4.5018E4,2.432E3,4.2586E4,1.603E3,8.29E2,3.1E3,3.9486E4],"tree_param":{"num_deleted":"0","num_feature":"5","num_nodes":"7","size_leaf_vector":"0"}},{"base_weights":[-9.233343E-3,2.1748193E-2,-9.285978E-3,-6.278733E-2,2.9776368E-2,-1.23534374E-1,-9.265525E-3],"categories":[],"categories_nodes":[],"categories_segments":[],"categories_sizes":[],"default_left":[true,true,true,false,false,false,false],"id":78,"left_children":[1,3,5,-1,-1,-1,-1],"loss_changes":[7.394886E-2,5.4126862E-2,1.0435438E-1,0E0,0E0,0E0,0E0],"parents":[2147483647,0,0,1,1,2,2],"right_children":[2,4,6,-1,-1,-1,-1],"split_conditions":[-3.9212143E-1,-4.9899775E-1,-4.1996378E-1,-3.1393666E-3,1.4888184E-3,-6.176719E-3,-4.6327626E-4],"split_indices":[3,3,0,0,0,0,0],"split_type":[0,0,0,0,0,0,0],"sum_hessian":[4.5223E4,7.6E1,4.5147E4,6E0,7E1,7E0,4.514E4],"tree_param":{"num_deleted":"0","num_feature":"5","num_nodes":"7","size_leaf_vector":"0"}},{"base_weights":[-8.945598E-3,-8.457902E-3,-1.4123931E-2,-8.844622E-3,-8.1482966E-4,-2.0116208E-2,-7.697912E-3],"categories":[],"categories_nodes":[],"categories_segments":[],"categories_sizes":[],"default_left":[true,true,true,false,false,false,false],"id":79,"left_children":[1,3,5,-1,-1,-1,-1],"loss_changes":[1.1353111E-1,1.21564865E-1,1.4894229E-1,0E0,0E0,0E0,0E0],"parents":[2147483647,0,0,1,1,2,2],"right_children":[2,4,6,-1,-1,-1,-1],"split_conditions":[1.3245034E-1,9.7850926E-2,1.950967E-1,-4.4223113E-4,-4.0741485E-5,-1.0058105E-3,-3.848956E-4],"split_indices":[3,0,1,0,0,0,0],"split_type":[0,0,0,0,0,0,0],"sum_hessian":[4.5001E4,4.113E4,3.871E3,3.9149E4,1.981E3,2.002E3,1.869E3],"tree_param":{"num_deleted":"0","num_feature":"5","num_nodes":"7","size_leaf_vector":"0"}},{"base_weights":[-9.102563E-3,-1.1704487E-2,-8.12469E-3,-6.158623E-4,-1.24577675E-2,-7.714854E-3,-1.63107E-2],"categories":[],"categories_nodes":[],"categories_segments":[],"categories_sizes":[],"default_left":[true,true,true,false,false,false,false],"id":80,"left_children":[1,3,5,-1,-1,-1,-1],"loss_changes":[1.1471629E-1,1.0293293E-1,1.0991883E-1,0E0,0E0,0E0,0E0],"parents":[2147483647,0,0,1,1,2,2],"right_children":[2,4,6,-1,-1,-1,-1],"split_conditions":[-2.9897697E-2,-2.5701833E-1,2.1311958E-1,-3.0793115E-5,-6.228884E-4,-3.8574272E-4,-8.1553496E-4],"split_indices":[4,0,4,0,0,0,0],"split_type":[0,0,0,0,0,0,0],"sum_hessian":[4.5123E4,1.2323E4,3.28E4,7.84E2,1.1539E4,3.1238E4,1.562E3],"tree_param":{"num_deleted":"0","num_feature":"5","num_nodes":"7","size_leaf_vector":"0"}},{"base_weights":[-7.858413E-3,-3.2240767E-3,-8.137492E-3,-6.8928148E-3,8.858293E-3,-2.9137434E-2,-8.0167735E-3],"categories":[],"categories_nodes":[],"categories_segments":[],"categories_sizes":[],"default_left":[true,true,true,false,false,false,false],"id":81,"left_children":[1,3,5,-1,-1,-1,-1],"loss_changes":[5.8842897E-2,1.1473514E-1,1.0860038E-1,0E0,0E0,0E0,0E0],"parents":[2147483647,0,0,1,1,2,2],"right_children":[2,4,6,-1,-1,-1,-1],"split_conditions":[-1.65373E-1,-1.8406929E-1,-1.570751E-1,-3.4464075E-4,4.4291466E-4,-1.4568717E-3,-4.0083867E-4],"split_indices":[3,1,3,0,0,0,0],"split_type":[0,0,0,0,0,0,0],"sum_hessian":[4.5516E4,2.586E3,4.293E4,1.984E3,6.02E2,2.44E2,4.2686E4],"tree_param":{"num_deleted":"0","num_feature":"5","num_nodes":"7","size_leaf_vector":"0"}},{"base_weights":[-7.3104994E-3,-7.509993E-3,-4.8953405E-4,-7.369588E-3,-3.1102033E-2,3.099178E-2,-4.3108556E-3],"categories":[],"categories_nodes":[],"categories_segments":[],"categories_sizes":[],"default_left":[true,true,true,false,false,false,false],"id":82,"left_children":[1,3,5,-1,-1,-1,-1],"loss_changes":[6.1383486E-2,1.4495802E-1,1.5447879E-1,0E0,0E0,0E0,0E0],"parents":[2147483647,0,0,1,1,2,2],"right_children":[2,4,6,-1,-1,-1,-1],"split_conditions":[2.2887665E-1,2.3390317E-1,1.9169602E-1,-3.684794E-4,-1.5551017E-3,1.549589E-3,-2.1554278E-4],"split_indices":[0,3,3,0,0,0,0],"split_type":[0,0,0,0,0,0,0],"sum_hessian":[4.5112E4,4.383E4,1.282E3,4.3572E4,2.58E2,1.38E2,1.144E3],"tree_param":{"num_deleted":"0","num_feature":"5","num_nodes":"7","size_leaf_vector":"0"}},{"base_weights":[-6.8217353E-3,-1.5509634E-3,-7.1245837E-3,-7.032219E-3,8.378895E-3,-1.4376856E-2,-6.7498814E-3],"categories":[],"categories_nodes":[],"categories_segments":[],"categories_sizes":[],"default_left":[true,true,true,false,false,false,false],"id":83,"left_children":[1,3,5,-1,-1,-1,-1],"loss_changes":[7.169056E-2,1.3297231E-1,1.1533475E-1,0E0,0E0,0E0,0E0],"parents":[2147483647,0,0,1,1,2,2],"right_children":[2,4,6,-1,-1,-1,-1],"split_conditions":[-1.7438924E-1,-2.1032776E-1,-1.1926566E-1,-3.5161094E-4,4.1894475E-4,-7.1884284E-4,-3.3749407E-4],"split_indices":[4,2,0,0,0,0,0],"split_type":[0,0,0,0,0,0,0],"sum_hessian":[4.4918E4,2.441E3,4.2477E4,1.573E3,8.68E2,2.085E3,4.0392E4],"tree_param":{"num_deleted":"0","num_feature":"5","num_nodes":"7","size_leaf_vector":"0"}},{"base_weights":[-6.5619173E-3,-9.752843E-2,-6.5456745E-3,-3.6581688E-2,-1.2678012E-1,7.995406E-2,-6.5704104E-3],"categories":[],"categories_nodes":[],"categories_segments":[],"categories_sizes":[],"default_left":[true,true,true,false,false,false,false],"id":84,"left_children":[1,3,5,-1,-1,-1,-1],"loss_changes":[6.616795E-2,9.624533E-3,9.725344E-2,0E0,0E0,0E0,0E0],"parents":[2147483647,0,0,1,1,2,2],"right_children":[2,4,6,-1,-1,-1,-1],"split_conditions":[-5.1394117E-1,-5.609429E-1,-4.6949983E-1,-1.8290844E-3,-6.339006E-3,3.997703E-3,-3.2852052E-4],"split_indices":[2,3,1,0,0,0,0],"split_type":[0,0,0,0,0,0,0],"sum_hessian":[4.5213E4,7E0,4.5206E4,3E0,4E0,1.2E1,4.5194E4],"tree_param":{"num_deleted":"0","num_feature":"5","num_nodes":"7","size_leaf_vector":"0"}},{"base_weights":[-6.7767957E-3,-6.7400825E-3,-5.5237528E-2,-6.752558E-3,1.0703744E-1,1.0931898E-2,-7.279745E-2],"categories":[],"categories_nodes":[],"categories_segments":[],"categories_sizes":[],"default_left":[true,true,true,false,false,false,false],"id":85,"left_children":[1,3,5,-1,-1,-1,-1],"loss_changes":[7.986164E-2,6.4688206E-2,4.0301435E-2,0E0,0E0,0E0,0E0],"parents":[2147483647,0,0,1,1,2,2],"right_children":[2,4,6,-1,-1,-1,-1],"split_conditions":[4.3294182E-1,4.5054466E-1,4.1435614E-1,-3.3762792E-4,5.351872E-3,5.465949E-4,-3.6398724E-3],"split_indices":[4,2,2,0,0,0,0],"split_type":[0,0,0,0,0,0,0],"sum_hessian":[4.5096E4,4.5063E4,3.3E1,4.5059E4,4E0,7E0,2.6E1],"tree_param":{"num_deleted":"0","num_feature":"5","num_nodes":"7","size_leaf_vector":"0"}},{"base_weights":[-6.4894496E-3,-6.0130563E-3,-9.564703E-3,-6.0613044E-3,4.6484325E-2,-2.3646735E-2,-8.507665E-3],"categories":[],"categories_nodes":[],"categories_segments":[],"categories_sizes":[],"default_left":[true,true,true,false,false,false,false],"id":86,"left_children":[1,3,5,-1,-1,-1,-1],"loss_changes":[6.606233E-2,9.926987E-2,8.988434E-2,0E0,0E0,0E0,0E0],"parents":[2147483647,0,0,1,1,2,2],"right_children":[2,4,6,-1,-1,-1,-1],"split_conditions":[9.1231264E-2,9.0741456E-2,9.797156E-2,-3.0306523E-4,2.3242163E-3,-1.1823367E-3,-4.2538327E-4],"split_indices":[4,4,4,0,0,0,0],"split_type":[0,0,0,0,0,0,0],"sum_hessian":[4.5131E4,3.908E4,6.051E3,3.9045E4,3.5E1,4.21E2,5.63E3],"tree_param":{"num_deleted":"0","num_feature":"5","num_nodes":"7","size_leaf_vector":"0"}},{"base_weights":[-5.727831E-3,-5.435792E-3,-1.4804834E-2,-5.5548423E-3,3.1346306E-2,-3.7245996E-2,-1.0980686E-2],"categories":[],"categories_nodes":[],"categories_segments":[],"categories_sizes":[],"default_left":[true,true,true,false,false,false,false],"id":87,"left_children":[1,3,5,-1,-1,-1,-1],"loss_changes":[1.1936891E-1,1.9134927E-1,1.20079964E-1,0E0,0E0,0E0,0E0],"parents":[2147483647,0,0,1,1,2,2],"right_children":[2,4,6,-1,-1,-1,-1],"split_conditions":[2.2190818E-1,2.43837E-1,2.1725795E-1,-2.7774213E-4,1.5673153E-3,-1.8622999E-3,-5.4903433E-4],"split_indices":[4,1,2,0,0,0,0],"split_type":[0,0,0,0,0,0,0],"sum_hessian":[4.506E4,4.3657E4,1.403E3,4.3517E4,1.4E2,2.03E2,1.2E3],"tree_param":{"num_deleted":"0","num_feature":"5","num_nodes":"7","size_leaf_vector":"0"}},{"base_weights":[-5.8128037E-3,-9.548059E-2,-5.794653E-3,-4.6143584E-2,-1.2572148E-1,1.05847836E-1,-5.8094836E-3],"categories":[],"categories_nodes":[],"categories_segments":[],"categories_sizes":[],"default_left":[true,true,true,false,false,false,false],"id":88,"left_children":[1,3,5,-1,-1,-1,-1],"loss_changes":[7.234371E-2,7.6267123E-3,7.4760556E-2,0E0,0E0,0E0,0E0],"parents":[2147483647,0,0,1,1,2,2],"right_children":[2,4,6,-1,-1,-1,-1],"split_conditions":[-4.888448E-1,-5.5243266E-1,-4.694649E-1,-2.3071792E-3,-6.2860744E-3,5.292392E-3,-2.9047419E-4],"split_indices":[0,1,0,0,0,0,0],"split_type":[0,0,0,0,0,0,0],"sum_hessian":[4.4789E4,8E0,4.4781E4,4E0,4E0,5E0,4.4776E4],"tree_param":{"num_deleted":"0","num_feature":"5","num_nodes":"7","size_leaf_vector":"0"}},{"base_weights":[-4.936436E-3,-4.9199164E-3,-1.1075786E-1,-4.9559493E-3,1.2053958E-1],"categories":[],"categories_nodes":[],"categories_segments":[],"categories_sizes":[],"default_left":[true,true,false,false,false],"id":89,"left_children":[1,3,-1,-1,-1],"loss_changes":[7.83751E-2,2.0465553E-1,0E0,0E0,0E0],"parents":[2147483647,0,0,1,1],"right_children":[2,4,-1,-1,-1],"split_conditions":[4.9347377E-1,4.604838E-1,-5.537893E-3,-2.4779746E-4,6.026979E-3],"split_indices":[4,1,0,0,0],"split_type":[0,0,0,0,0],"sum_hessian":[4.5144E4,4.5138E4,6E0,4.5126E4,1.2E1],"tree_param":{"num_deleted":"0","num_feature":"5","num_nodes":"5","size_leaf_vector":"0"}},{"base_weights":[-4.8155473E-3,-1.04895845E-1,-4.793215E-3,-3.999339E-2,-1.2699784E-1,1.16018906E-1,-4.8118914E-3],"categories":[],"categories_nodes":[],"categories_segments":[],"categories_sizes":[],"default_left":[true,true,true,false,false,false,false],"id":90,"left_children":[1,3,5,-1,-1,-1,-1],"loss_changes":[1.0016E-1,9.265669E-3,1.02161646E-1,0E0,0E0,0E0,0E0],"parents":[2147483647,0,0,1,1,2,2],"right_children":[2,4,6,-1,-1,-1,-1],"split_conditions":[-5.1394117E-1,-5.861769E-1,-4.721651E-1,-1.9996695E-3,-6.3498924E-3,5.800945E-3,-2.4059457E-4],"split_indices":[0,3,1,0,0,0,0],"split_type":[0,0,0,0,0,0,0],"sum_hessian":[4.5038E4,9E0,4.5029E4,3E0,6E0,6E0,4.5023E4],"tree_param":{"num_deleted":"0","num_feature":"5","num_nodes":"7","size_leaf_vector":"0"}},{"base_weights":[-4.904653E-3,5.9067845E-2,-4.9228896E-3,-6.941575E-2,1.045545E-1,-5.6563985E-2,-4.8965686E-3],"categories":[],"categories_nodes":[],"categories_segments":[],"categories_sizes":[],"default_left":[true,true,true,false,false,false,false],"id":91,"left_children":[1,3,5,-1,-1,-1,-1],"loss_changes":[5.319333E-2,8.3233476E-2,6.134355E-2,0E0,0E0,0E0,0E0],"parents":[2147483647,0,0,1,1,2,2],"right_children":[2,4,6,-1,-1,-1,-1],"split_conditions":[-4.6943992E-1,-5.124877E-1,-4.1996378E-1,-3.4707875E-3,5.227725E-3,-2.8281992E-3,-2.4482844E-4],"split_indices":[1,2,0,0,0,0,0],"split_type":[0,0,0,0,0,0,0],"sum_hessian":[4.5345E4,1.2E1,4.5333E4,3E0,9E0,2.2E1,4.5311E4],"tree_param":{"num_deleted":"0","num_feature":"5","num_nodes":"7","size_leaf_vector":"0"}},{"base_weights":[-4.1770777E-3,-4.1585783E-3,-1.0835961E-1,-4.2332252E-3,2.1211613E-2,-1.15612336E-1,-2.8795289E-2],"categories":[],"categories_nodes":[],"categories_segments":[],"categories_sizes":[],"default_left":[true,true,true,false,false,false,false],"id":92,"left_children":[1,3,5,-1,-1,-1,-1],"loss_changes":[8.683002E-2,8.583927E-2,1.2873709E-3,0E0,0E0,0E0,0E0],"parents":[2147483647,0,0,1,1,2,2],"right_children":[2,4,6,-1,-1,-1,-1],"split_conditions":[4.858734E-1,3.6429575E-1,5.6649256E-1,-2.1166126E-4,1.0605807E-3,-5.780617E-3,-1.4397645E-3],"split_indices":[4,0,0,0,0,0,0],"split_type":[0,0,0,0,0,0,0],"sum_hessian":[4.5285E4,4.5278E4,7E0,4.5146E4,1.32E2,6E0,1E0],"tree_param":{"num_deleted":"0","num_feature":"5","num_nodes":"7","size_leaf_vector":"0"}},{"base_weights":[-4.0906984E-3,-4.0334273E-2,-4.0589757E-3,1.3500704E-2,-9.771324E-2,7.227146E-3,-4.1811676E-3],"categories":[],"categories_nodes":[],"categories_segments":[],"categories_sizes":[],"default_left":[true,true,true,false,false,false,false],"id":93,"left_children":[1,3,5,-1,-1,-1,-1],"loss_changes":[5.1258504E-2,1.2179001E-1,6.1656952E-2,0E0,0E0,0E0,0E0],"parents":[2147483647,0,0,1,1,2,2],"right_children":[2,4,6,-1,-1,-1,-1],"split_conditions":[-4.18219E-1,-4.3416354E-1,-2.8678644E-1,6.7503523E-4,-4.885662E-3,3.6135732E-4,-2.0905839E-4],"split_indices":[0,2,4,0,0,0,0],"split_type":[0,0,0,0,0,0,0],"sum_hessian":[4.4724E4,3.8E1,4.4686E4,2E1,1.8E1,4.78E2,4.4208E4],"tree_param":{"num_deleted":"0","num_feature":"5","num_nodes":"7","size_leaf_vector":"0"}},{"base_weights":[-3.7391032E-3,-3.547749E-3,-1.2838508E-2,-4.299686E-3,-8.9514744E-4,-1.7438356E-2,6.9828993E-3],"categories":[],"categories_nodes":[],"categories_segments":[],"categories_sizes":[],"default_left":[true,true,true,false,false,false,false],"id":94,"left_children":[1,3,5,-1,-1,-1,-1],"loss_changes":[7.7763855E-2,8.729535E-2,8.4003195E-2,0E0,0E0,0E0,0E0],"parents":[2147483647,0,0,1,1,2,2],"right_children":[2,4,6,-1,-1,-1,-1],"split_conditions":[2.4879381E-1,3.8471386E-2,3.4732878E-1,-2.1498429E-4,-4.4757373E-5,-8.719178E-4,3.4914498E-4],"split_indices":[4,2,1,0,0,0,0],"split_type":[0,0,0,0,0,0,0],"sum_hessian":[4.4686E4,4.3767E4,9.19E2,3.41E4,9.667E3,7.46E2,1.73E2],"tree_param":{"num_deleted":"0","num_feature":"5","num_nodes":"7","size_leaf_vector":"0"}},{"base_weights":[-3.7805778E-3,-3.9020122E-3,3.3685822E-2,-1.1373903E-2,-3.745107E-3,3.6865156E-2,-3.4258917E-2],"categories":[],"categories_nodes":[],"categories_segments":[],"categories_sizes":[],"default_left":[true,true,true,false,false,false,false],"id":95,"left_children":[1,3,5,-1,-1,-1,-1],"loss_changes":[2.0418602E-1,5.2369714E-2,3.258571E-2,0E0,0E0,0E0,0E0],"parents":[2147483647,0,0,1,1,2,2],"right_children":[2,4,6,-1,-1,-1,-1],"split_conditions":[3.5932922E-1,-2.5007567E-1,4.9692452E-1,-5.6869513E-4,-1.8725535E-4,1.8432578E-3,-1.7129459E-3],"split_indices":[4,2,3,0,0,0,0],"split_type":[0,0,0,0,0,0,0],"sum_hessian":[4.4849E4,4.4705E4,1.44E2,9.18E2,4.3787E4,1.38E2,6E0],"tree_param":{"num_deleted":"0","num_feature":"5","num_nodes":"7","size_leaf_vector":"0"}},{"base_weights":[-3.532114E-3,-3.3358207E-3,-8.994808E-3,-3.4957533E-3,8.429891E-3,-2.3370368E-2,-4.6710414E-3],"categories":[],"categories_nodes":[],"categories_segments":[],"categories_sizes":[],"default_left":[true,true,true,false,false,false,false],"id":96,"left_children":[1,3,5,-1,-1,-1,-1],"loss_changes":[4.8151135E-2,8.165091E-2,9.673078E-2,0E0,0E0,0E0,0E0],"parents":[2147483647,0,0,1,1,2,2],"right_children":[2,4,6,-1,-1,-1,-1],"split_conditions":[2.1311958E-1,2.0450225E-1,2.2887394E-1,-1.7478767E-4,4.2149457E-4,-1.1685184E-3,-2.3355207E-4],"split_indices":[4,0,3,0,0,0,0],"split_type":[0,0,0,0,0,0,0],"sum_hessian":[4.4932E4,4.3375E4,1.557E3,4.2794E4,5.81E2,3.59E2,1.198E3],"tree_param":{"num_deleted":"0","num_feature":"5","num_nodes":"7","size_leaf_vector":"0"}},{"base_weights":[-3.1811078E-3,-2.139671E-2,-3.1295896E-3,6.061527E-2,-2.7419493E-2,7.268131E-2,-3.1446964E-3],"categories":[],"categories_nodes":[],"categories_segments":[],"categories_sizes":[],"default_left":[true,true,true,false,false,false,false],"id":97,"left_children":[1,3,5,-1,-1,-1,-1],"loss_changes":[4.2248875E-2,6.439246E-2,5.1726133E-2,0E0,0E0,0E0,0E0],"parents":[2147483647,0,0,1,1,2,2],"right_children":[2,4,6,-1,-1,-1,-1],"split_conditions":[-3.7321994E-1,-4.6943992E-1,-3.6915264E-1,3.0307637E-3,-1.3709747E-3,3.6340654E-3,-1.5723483E-4],"split_indices":[0,4,0,0,0,0,0],"split_type":[0,0,0,0,0,0,0],"sum_hessian":[4.5091E4,1.26E2,4.4965E4,8E0,1.18E2,8E0,4.4957E4],"tree_param":{"num_deleted":"0","num_feature":"5","num_nodes":"7","size_leaf_vector":"0"}},{"base_weights":[-3.6404885E-3,-2.934653E-3,-8.32366E-3,-3.045447E-3,1.667866E-2,-2.104552E-2,-7.396752E-3],"categories":[],"categories_nodes":[],"categories_segments":[],"categories_sizes":[],"default_left":[true,true,true,false,false,false,false],"id":98,"left_children":[1,3,5,-1,-1,-1,-1],"loss_changes":[1.4884102E-1,8.509919E-2,6.9393516E-2,0E0,0E0,0E0,0E0],"parents":[2147483647,0,0,1,1,2,2],"right_children":[2,4,6,-1,-1,-1,-1],"split_conditions":[9.118663E-2,1.0416992E-1,9.792982E-2,-1.5227235E-4,8.3393295E-4,-1.0522761E-3,-3.698376E-4],"split_indices":[3,2,3,0,0,0,0],"split_type":[0,0,0,0,0,0,0],"sum_hessian":[4.5034E4,3.9137E4,5.897E3,3.8918E4,2.19E2,3.99E2,5.498E3],"tree_param":{"num_deleted":"0","num_feature":"5","num_nodes":"7","size_leaf_vector":"0"}},{"base_weights":[-3.4744348E-3,-3.5077634E-3,6.485974E-2,-3.4710348E-3,-6.456078E-2,9.085316E-2,-7.482394E-2],"categories":[],"categories_nodes":[],"categories_segments":[],"categories_sizes":[],"default_left":[true,true,true,false,false,false,false],"id":99,"left_children":[1,3,5,-1,-1,-1,-1],"loss_changes":[1.0276824E-1,1.0069007E-1,8.6676836E-2,0E0,0E0,0E0,0E0],"parents":[2147483647,0,0,1,1,2,2],"right_children":[2,4,6,-1,-1,-1,-1],"split_conditions":[4.431926E-1,4.0908954E-1,4.9347377E-1,-1.7355174E-4,-3.228039E-3,4.542658E-3,-3.741197E-3],"split_indices":[0,2,3,0,0,0,0],"split_type":[0,0,0,0,0,0,0],"sum_hessian":[4.5023E4,4.5002E4,2.1E1,4.4976E4,2.6E1,1.8E1,3E0],"tree_param":{"num_deleted":"0","num_feature":"5","num_nodes":"7","size_leaf_vector":"0"}},{"base_weights":[-2.731047E-3,8.046128E-3,-2.9347744E-3,3.1865675E-3,3.1182472E-2,-3.0204106E-2,-2.8536688E-3],"categories":[],"categories_nodes":[],"categories_segments":[],"categories_sizes":[],"default_left":[true,true,true,false,false,false,false],"id":100,"left_children":[1,3,5,-1,-1,-1,-1],"loss_changes":[9.892681E-2,9.389417E-2,9.769511E-2,0E0,0E0,0E0,0E0],"parents":[2147483647,0,0,1,1,2,2],"right_children":[2,4,6,-1,-1,-1,-1],"split_conditions":[-2.5816584E-1,-2.6451993E-1,-2.4797532E-1,1.5932838E-4,1.5591236E-3,-1.5102053E-3,-1.4268344E-4],"split_indices":[0,1,0,0,0,0,0],"split_type":[0,0,0,0,0,0,0],"sum_hessian":[4.5045E4,8.35E2,4.421E4,6.91E2,1.44E2,1.3E2,4.408E4],"tree_param":{"num_deleted":"0","num_feature":"5","num_nodes":"7","size_leaf_vector":"0"}},{"base_weights":[-2.7303533E-3,-5.1343823E-3,-2.1461623E-3,1.5089173E-3,-6.439021E-3,1.1295679E-2,-2.5285168E-3],"categories":[],"categories_nodes":[],"categories_segments":[],"categories_sizes":[],"default_left":[true,true,true,false,false,false,false],"id":101,"left_children":[1,3,5,-1,-1,-1,-1],"loss_changes":[6.31538E-2,7.6210886E-2,1.8600304E-1,0E0,0E0,0E0,0E0],"parents":[2147483647,0,0,1,1,2,2],"right_children":[2,4,6,-1,-1,-1,-1],"split_conditions":[-5.7019226E-2,-2.1751086E-1,-8.4486626E-2,7.544587E-5,-3.2195105E-4,5.64784E-4,-1.2642585E-4],"split_indices":[0,0,4,0,0,0,0],"split_type":[0,0,0,0,0,0,0],"sum_hessian":[4.4975E4,8.791E3,3.6184E4,1.443E3,7.348E3,1E3,3.5184E4],"tree_param":{"num_deleted":"0","num_feature":"5","num_nodes":"7","size_leaf_vector":"0"}},{"base_weights":[-2.7333237E-3,-5.025248E-2,-2.6994827E-3,4.3269265E-3,-1.05102316E-1,-2.7681445E-3,1.7451277E-2],"categories":[],"categories_nodes":[],"categories_segments":[],"categories_sizes":[],"default_left":[true,true,true,false,false,false,false],"id":102,"left_children":[1,3,5,-1,-1,-1,-1],"loss_changes":[7.230231E-2,9.6252255E-2,6.2330335E-2,0E0,0E0,0E0,0E0],"parents":[2147483647,0,0,1,1,2,2],"right_children":[2,4,6,-1,-1,-1,-1],"split_conditions":[-4.203366E-1,-4.5625025E-1,3.5929173E-1,2.1634634E-4,-5.2551157E-3,-1.3840722E-4,8.7256386E-4],"split_indices":[4,4,4,0,0,0,0],"split_type":[0,0,0,0,0,0,0],"sum_hessian":[4.5045E4,3.1E1,4.5014E4,1.6E1,1.5E1,4.4862E4,1.52E2],"tree_param":{"num_deleted":"0","num_feature":"5","num_nodes":"7","size_leaf_vector":"0"}},{"base_weights":[-2.5512108E-3,6.936868E-2,-2.5719048E-3,-6.372061E-2,1.1566753E-1,-4.778184E-3,-1.9323619E-3],"categories":[],"categories_nodes":[],"categories_segments":[],"categories_sizes":[],"default_left":[true,true,true,false,false,false,false],"id":103,"left_children":[1,3,5,-1,-1,-1,-1],"loss_changes":[6.72549E-2,8.747485E-2,6.3566685E-2,0E0,0E0,0E0,0E0],"parents":[2147483647,0,0,1,1,2,2],"right_children":[2,4,6,-1,-1,-1,-1],"split_conditions":[-4.60001E-1,-5.152852E-1,-4.5895875E-2,-3.1860308E-3,5.7833767E-3,-2.389092E-4,-9.6618096E-5],"split_indices":[4,3,3,0,0,0,0],"split_type":[0,0,0,0,0,0,0],"sum_hessian":[4.5068E4,1.2E1,4.5056E4,3E0,9E0,1.0124E4,3.4932E4],"tree_param":{"num_deleted":"0","num_feature":"5","num_nodes":"7","size_leaf_vector":"0"}},{"base_weights":[-2.5312968E-3,-2.1232807E-3,-7.6218247E-3,-2.1548958E-3,5.8211684E-2,-1.0411788E-2,2.9416648E-3],"categories":[],"categories_nodes":[],"categories_segments":[],"categories_sizes":[],"default_left":[true,true,true,false,false,false,false],"id":104,"left_children":[1,3,5,-1,-1,-1,-1],"loss_changes":[9.407064E-2,8.0124184E-2,9.908515E-2,0E0,0E0,0E0,0E0],"parents":[2147483647,0,0,1,1,2,2],"right_children":[2,4,6,-1,-1,-1,-1],"split_conditions":[1.4685656E-1,1.4633267E-1,2.671091E-1,-1.0774479E-4,2.9105842E-3,-5.205894E-4,1.4708324E-4],"split_indices":[4,4,1,0,0,0,0],"split_type":[0,0,0,0,0,0,0],"sum_hessian":[4.5298E4,4.1938E4,3.36E3,4.1917E4,2.1E1,2.658E3,7.02E2],"tree_param":{"num_deleted":"0","num_feature":"5","num_nodes":"7","size_leaf_vector":"0"}},{"base_weights":[-2.0190317E-3,-1.7435099E-3,-1.6308175E-2,-1.8885036E-3,2.1058442E-2,3.3888806E-2,-1.8247195E-2],"categories":[],"categories_nodes":[],"categories_segments":[],"categories_sizes":[],"default_left":[true,true,true,false,false,false,false],"id":105,"left_children":[1,3,5,-1,-1,-1,-1],"loss_changes":[1.7710371E-1,1.4597932E-1,8.344865E-2,0E0,0E0,0E0,0E0],"parents":[2147483647,0,0,1,1,2,2],"right_children":[2,4,6,-1,-1,-1,-1],"split_conditions":[2.5410467E-1,2.3932025E-1,2.0141204E-1,-9.442518E-5,1.0529221E-3,1.6944403E-3,-9.1235974E-4],"split_indices":[4,3,2,0,0,0,0],"split_type":[0,0,0,0,0,0,0],"sum_hessian":[4.4991E4,4.4141E4,8.5E2,4.3863E4,2.78E2,3.1E1,8.19E2],"tree_param":{"num_deleted":"0","num_feature":"5","num_nodes":"7","size_leaf_vector":"0"}},{"base_weights":[-2.0175278E-3,-2.001668E-3,-1.04022644E-1,-3.5605825E-2,-1.9658604E-3],"categories":[],"categories_nodes":[],"categories_segments":[],"categories_sizes":[],"default_left":[true,true,false,false,false],"id":106,"left_children":[1,3,-1,-1,-1],"loss_changes":[7.284258E-2,5.4257303E-2,0E0,0E0,0E0],"parents":[2147483647,0,0,1,1],"right_children":[2,4,-1,-1,-1],"split_conditions":[4.9347377E-1,-4.163428E-1,-5.2011325E-3,-1.7802913E-3,-9.829302E-5],"split_indices":[4,3,0,0,0],"split_type":[0,0,0,0,0],"sum_hessian":[4.5154E4,4.5148E4,6E0,4.7E1,4.5101E4],"tree_param":{"num_deleted":"0","num_feature":"5","num_nodes":"5","size_leaf_vector":"0"}},{"base_weights":[-2.0711096E-3,3.4351356E-3,-2.391906E-3,-3.0630744E-8,1.30064E-2,-1.4660536E-2,-1.9939544E-3],"categories":[],"categories_nodes":[],"categories_segments":[],"categories_sizes":[],"default_left":[true,true,true,false,false,false,false],"id":107,"left_children":[1,3,5,-1,-1,-1,-1],"loss_changes":[7.956615E-2,8.153963E-2,2.0776719E-1,0E0,0E0,0E0,0E0],"parents":[2147483647,0,0,1,1,2,2],"right_children":[2,4,6,-1,-1,-1,-1],"split_conditions":[-1.7268673E-1,-1.989055E-1,-1.2992164E-1,-1.5315372E-9,6.5032E-4,-7.330268E-4,-9.9697725E-5],"split_indices":[0,1,0,0,0,0,0],"split_type":[0,0,0,0,0,0,0],"sum_hessian":[4.5039E4,2.479E3,4.256E4,1.825E3,6.54E2,1.336E3,4.1224E4],"tree_param":{"num_deleted":"0","num_feature":"5","num_nodes":"7","size_leaf_vector":"0"}},{"base_weights":[-1.9112623E-3,-3.1725913E-3,-8.572231E-4,1.6484415E-3,-3.8231923E-3,2.002179E-2,-1.0825814E-3],"categories":[],"categories_nodes":[],"categories_segments":[],"categories_sizes":[],"default_left":[true,true,true,false,false,false,false],"id":108,"left_children":[1,3,5,-1,-1,-1,-1],"loss_changes":[5.9861585E-2,6.429972E-2,1.1544635E-1,0E0,0E0,0E0,0E0],"parents":[2147483647,0,0,1,1,2,2],"right_children":[2,4,6,-1,-1,-1,-1],"split_conditions":[-2.6154537E-3,-1.7268673E-1,-1.0903415E-1,8.242208E-5,-1.9115962E-4,1.0010896E-3,-5.412907E-5],"split_indices":[4,4,0,0,0,0,0],"split_type":[0,0,0,0,0,0,0],"sum_hessian":[4.5027E4,2.0497E4,2.453E4,2.437E3,1.806E4,2.61E2,2.4269E4],"tree_param":{"num_deleted":"0","num_feature":"5","num_nodes":"7","size_leaf_vector":"0"}},{"base_weights":[-1.9062919E-3,7.8914195E-2,-1.9242141E-3,-2.2188881E-2,1.06963575E-1,-5.3555045E-2,-1.8989117E-3],"categories":[],"categories_nodes":[],"categories_segments":[],"categories_sizes":[],"default_left":[true,true,true,false,false,false,false],"id":109,"left_children":[1,3,5,-1,-1,-1,-1],"loss_changes":[6.533033E-2,3.0732192E-2,5.8671415E-2,0E0,0E0,0E0,0E0],"parents":[2147483647,0,0,1,1,2,2],"right_children":[2,4,6,-1,-1,-1,-1],"split_conditions":[-4.5767808E-1,-5.2254915E-1,-4.1996378E-1,-1.1094441E-3,5.348179E-3,-2.6777524E-3,-9.4945586E-5],"split_indices":[4,0,3,0,0,0,0],"split_type":[0,0,0,0,0,0,0],"sum_hessian":[4.4997E4,9E0,4.4988E4,2E0,7E0,2.1E1,4.4967E4],"tree_param":{"num_deleted":"0","num_feature":"5","num_nodes":"7","size_leaf_vector":"0"}},{"base_weights":[-1.6581569E-3,3.988423E-3,-1.9709787E-3,-7.490846E-2,4.220946E-3,-2.799451E-1,-1.957902E-3],"categories":[],"categories_nodes":[],"categories_segments":[],"categories_sizes":[],"default_left":[true,true,true,false,false,false,false],"id":110,"left_children":[1,3,5,-1,-1,-1,-1],"loss_changes":[7.954589E-2,4.3684606E-2,1.5454262E-1,0E0,0E0,0E0,0E0],"parents":[2147483647,0,0,1,1,2,2],"right_children":[2,4,6,-1,-1,-1,-1],"split_conditions":[-1.7299172E-1,-4.888448E-1,-1.7294845E-1,-3.745423E-3,2.1104731E-4,-1.3997256E-2,-9.78951E-5],"split_indices":[4,3,4,0,0,0,0],"split_type":[0,0,0,0,0,0,0],"sum_hessian":[4.5028E4,2.363E3,4.2665E4,6E0,2.357E3,1E0,4.2664E4],"tree_param":{"num_deleted":"0","num_feature":"5","num_nodes":"7","size_leaf_vector":"0"}},{"base_weights":[-1.7878251E-3,-1.3231416E-3,-6.739959E-3,-1.6244734E-3,7.030878E-3,-1.2423084E-2,-2.7367324E-4],"categories":[],"categories_nodes":[],"categories_segments":[],"categories_sizes":[],"default_left":[true,true,true,false,false,false,false],"id":111,"left_children":[1,3,5,-1,-1,-1,-1],"loss_changes":[1.03219494E-1,1.0325222E-1,1.4140564E-1,0E0,0E0,0E0,0E0],"parents":[2147483647,0,0,1,1,2,2],"right_children":[2,4,6,-1,-1,-1,-1],"split_conditions":[1.3245034E-1,1.12326056E-1,1.943478E-1,-8.122367E-5,3.5154392E-4,-6.211542E-4,-1.36836625E-5],"split_indices":[4,1,0,0,0,0,0],"split_type":[0,0,0,0,0,0,0],"sum_hessian":[4.4858E4,4.1011E4,3.847E3,3.9584E4,1.427E3,2.047E3,1.8E3],"tree_param":{"num_deleted":"0","num_feature":"5","num_nodes":"7","size_leaf_vector":"0"}},{"base_weights":[-1.824137E-3,-1.8822746E-3,2.5286177E-2,-5.5885813E-3,-1.5041706E-3,4.85444E-2,2.4525614E-3],"categories":[],"categories_nodes":[],"categories_segments":[],"categories_sizes":[],"default_left":[true,true,true,false,false,false,false],"id":112,"left_children":[1,3,5,-1,-1,-1,-1],"loss_changes":[7.144144E-2,6.33349E-2,5.1394664E-2,0E0,0E0,0E0,0E0],"parents":[2147483647,0,0,1,1,2,2],"right_children":[2,4,6,-1,-1,-1,-1],"split_conditions":[3.7826297E-1,-1.2221916E-1,3.733234E-1,-2.7942908E-4,-7.520853E-5,2.42722E-3,1.2262807E-4],"split_indices":[0,0,4,0,0,0,0],"split_type":[0,0,0,0,0,0,0],"sum_hessian":[4.5296E4,4.52E4,9.6E1,4.183E3,4.1017E4,4.7E1,4.9E1],"tree_param":{"num_deleted":"0","num_feature":"5","num_nodes":"7","size_leaf_vector":"0"}},{"base_weights":[-1.5764448E-3,3.5330812E-3,-1.8923552E-3,-6.5291063E-3,7.1674264E-3,-9.452692E-3,-1.6097745E-3],"categories":[],"categories_nodes":[],"categories_segments":[],"categories_sizes":[],"default_left":[true,true,true,false,false,false,false],"id":113,"left_children":[1,3,5,-1,-1,-1,-1],"loss_changes":[7.2654836E-2,9.589537E-2,9.054057E-2,0E0,0E0,0E0,0E0],"parents":[2147483647,0,0,1,1,2,2],"right_children":[2,4,6,-1,-1,-1,-1],"split_conditions":[-1.6641288E-1,-2.6848692E-1,-1.2631062E-1,-3.264553E-4,3.5837133E-4,-4.7263462E-4,-8.048873E-5],"split_indices":[4,2,1,0,0,0,0],"split_type":[0,0,0,0,0,0,0],"sum_hessian":[4.5006E4,2.62E3,4.2386E4,6.95E2,1.925E3,1.526E3,4.086E4],"tree_param":{"num_deleted":"0","num_feature":"5","num_nodes":"7","size_leaf_vector":"0"}},{"base_weights":[-1.3509673E-3,-3.6858288E-3,-5.3663517E-4,-1.0152191E-3,-6.9412505E-3,7.596124E-3,-7.969672E-4],"categories":[],"categories_nodes":[],"categories_segments":[],"categories_sizes":[],"default_left":[true,true,true,false,false,false,false],"id":114,"left_children":[1,3,5,-1,-1,-1,-1],"loss_changes":[8.580798E-2,1.0145149E-1,7.08524E-2,0E0,0E0,0E0,0E0],"parents":[2147483647,0,0,1,1,2,2],"right_children":[2,4,6,-1,-1,-1,-1],"split_conditions":[-3.3987585E-2,-7.981263E-2,-5.08918E-2,-5.076096E-5,-3.4706254E-4,3.798062E-4,-3.984836E-5],"split_indices":[2,4,0,0,0,0,0],"split_type":[0,0,0,0,0,0,0],"sum_hessian":[4.513E4,1.1669E4,3.3461E4,6.411E3,5.258E3,1.037E3,3.2424E4],"tree_param":{"num_deleted":"0","num_feature":"5","num_nodes":"7","size_leaf_vector":"0"}},{"base_weights":[-1.1386379E-3,4.69236E-3,-1.4553881E-3,2.5658251E-3,2.9834464E-2,-9.699311E-3,-1.0998268E-3],"categories":[],"categories_nodes":[],"categories_segments":[],"categories_sizes":[],"default_left":[true,true,true,false,false,false,false],"id":115,"left_children":[1,3,5,-1,-1,-1,-1],"loss_changes":[8.370225E-2,1.2476552E-1,1.2597612E-1,0E0,0E0,0E0,0E0],"parents":[2147483647,0,0,1,1,2,2],"right_children":[2,4,6,-1,-1,-1,-1],"split_conditions":[-1.7705259E-1,-1.8408415E-1,-1.2357286E-1,1.2829126E-4,1.4917232E-3,-4.8496557E-4,-5.499134E-5],"split_indices":[0,0,1,0,0,0,0],"split_type":[0,0,0,0,0,0,0],"sum_hessian":[4.5314E4,2.334E3,4.298E4,2.153E3,1.81E2,1.776E3,4.1204E4],"tree_param":{"num_deleted":"0","num_feature":"5","num_nodes":"7","size_leaf_vector":"0"}},{"base_weights":[-1.5159516E-3,-1.7339713E-3,3.3372475E-3,-1.3331961E-3,-8.194717E-3,1.4117324E-2,-4.7508436E-3],"categories":[],"categories_nodes":[],"categories_segments":[],"categories_sizes":[],"default_left":[true,true,true,false,false,false,false],"id":116,"left_children":[1,3,5,-1,-1,-1,-1],"loss_changes":[4.735017E-2,1.1086835E-1,1.6782108E-1,0E0,0E0,0E0,0E0],"parents":[2147483647,0,0,1,1,2,2],"right_children":[2,4,6,-1,-1,-1,-1],"split_conditions":[1.9602673E-1,1.2224729E-1,2.210251E-1,-6.6659806E-5,-4.0973583E-4,7.058662E-4,-2.3754219E-4],"split_indices":[0,4,4,0,0,0,0],"split_type":[0,0,0,0,0,0,0],"sum_hessian":[4.4744E4,4.2821E4,1.923E3,4.0321E4,2.5E3,8.24E2,1.099E3],"tree_param":{"num_deleted":"0","num_feature":"5","num_nodes":"7","size_leaf_vector":"0"}},{"base_weights":[-1.4811875E-3,-3.7267946E-3,-4.923827E-4,-3.687764E-3,-2.7023822E-1,-5.2788644E-4,5.2304875E-2],"categories":[],"categories_nodes":[],"categories_segments":[],"categories_sizes":[],"default_left":[true,true,true,false,false,false,false],"id":117,"left_children":[1,3,5,-1,-1,-1,-1],"loss_changes":[9.989033E-2,1.4206375E-1,5.8577664E-2,0E0,0E0,0E0,0E0],"parents":[2147483647,0,0,1,1,2,2],"right_children":[2,4,6,-1,-1,-1,-1],"split_conditions":[-2.2436364E-2,-2.2440217E-2,4.509549E-1,-1.843882E-4,-1.3511911E-2,-2.6394322E-5,2.615244E-3],"split_indices":[4,4,0,0,0,0,0],"split_type":[0,0,0,0,0,0,0],"sum_hessian":[4.4986E4,1.3752E4,3.1234E4,1.3751E4,1E0,3.1214E4,2E1],"tree_param":{"num_deleted":"0","num_feature":"5","num_nodes":"7","size_leaf_vector":"0"}},{"base_weights":[-1.2654015E-3,-1.3223438E-3,1.5752114E-2,-9.827031E-4,-4.800305E-3,3.0400226E-2,-1.1630284E-2],"categories":[],"categories_nodes":[],"categories_segments":[],"categories_sizes":[],"default_left":[true,true,true,false,false,false,false],"id":118,"left_children":[1,3,5,-1,-1,-1,-1],"loss_changes":[4.3583058E-2,5.2922703E-2,6.0518622E-2,0E0,0E0,0E0,0E0],"parents":[2147483647,0,0,1,1,2,2],"right_children":[2,4,6,-1,-1,-1,-1],"split_conditions":[3.588464E-1,1.2852982E-1,4.0836456E-1,-4.9135153E-5,-2.4001524E-4,1.5200113E-3,-5.815142E-4],"split_indices":[4,4,2,0,0,0,0],"split_type":[0,0,0,0,0,0,0],"sum_hessian":[4.4954E4,4.4805E4,1.49E2,4.082E4,3.985E3,9.7E1,5.2E1],"tree_param":{"num_deleted":"0","num_feature":"5","num_nodes":"7","size_leaf_vector":"0"}},{"base_weights":[-1.3110569E-3,-8.093635E-4,-4.387644E-3,-1.4886379E-3,5.477233E-3,-3.4851983E-2,-3.9971857E-3],"categories":[],"categories_nodes":[],"categories_segments":[],"categories_sizes":[],"default_left":[true,true,true,false,false,false,false],"id":119,"left_children":[1,3,5,-1,-1,-1,-1],"loss_changes":[6.9707245E-2,1.6583766E-1,7.518016E-2,0E0,0E0,0E0,0E0],"parents":[2147483647,0,0,1,1,2,2],"right_children":[2,4,6,-1,-1,-1,-1],"split_conditions":[8.448959E-2,4.3109097E-2,8.561305E-2,-7.44319E-5,2.7386166E-4,-1.7425992E-3,-1.9985929E-4],"split_indices":[3,4,3,0,0,0,0],"split_type":[0,0,0,0,0,0,0],"sum_hessian":[4.5163E4,3.8832E4,6.331E3,3.5046E4,3.786E3,7.9E1,6.252E3],"tree_param":{"num_deleted":"0","num_feature":"5","num_nodes":"7","size_leaf_vector":"0"}},{"base_weights":[-1.5145643E-3,-1.541811E-3,4.757062E-2,1.2192794E-3,-2.0053699E-3,1.5097322E-1,1.4171311E-2],"categories":[],"categories_nodes":[],"categories_segments":[],"categories_sizes":[],"default_left":[true,true,true,false,false,false,false],"id":120,"left_children":[1,3,5,-1,-1,-1,-1],"loss_changes":[6.0264982E-2,5.757615E-2,8.419989E-2,0E0,0E0,0E0,0E0],"parents":[2147483647,0,0,1,1,2,2],"right_children":[2,4,6,-1,-1,-1,-1],"split_conditions":[4.4838205E-1,-8.433785E-2,3.9530843E-1,6.096397E-5,-1.00268495E-4,7.548661E-3,7.085655E-4],"split_indices":[0,4,4,0,0,0,0],"split_type":[0,0,0,0,0,0,0],"sum_hessian":[4.5005E4,4.4981E4,2.4E1,6.466E3,3.8515E4,5E0,1.9E1],"tree_param":{"num_deleted":"0","num_feature":"5","num_nodes":"7","size_leaf_vector":"0"}},{"base_weights":[-5.883351E-4,7.289907E-3,-7.0321653E-4,-1.0003251E-2,1.9517979E-2,-8.09466E-2,-6.8317616E-4],"categories":[],"categories_nodes":[],"categories_segments":[],"categories_sizes":[],"default_left":[true,true,true,false,false,false,false],"id":121,"left_children":[1,3,5,-1,-1,-1,-1],"loss_changes":[4.049043E-2,1.3616529E-1,7.0846215E-2,0E0,0E0,0E0,0E0],"parents":[2147483647,0,0,1,1,2,2],"right_children":[2,4,6,-1,-1,-1,-1],"split_conditions":[-2.6988333E-1,-3.292877E-1,-2.6921445E-1,-5.0016254E-4,9.7589893E-4,-4.04733E-3,-3.415881E-5],"split_indices":[0,0,0,0,0,0,0],"split_type":[0,0,0,0,0,0,0],"sum_hessian":[4.4731E4,6.42E2,4.4089E4,2.66E2,3.76E2,1E1,4.4079E4],"tree_param":{"num_deleted":"0","num_feature":"5","num_nodes":"7","size_leaf_vector":"0"}},{"base_weights":[-8.111777E-4,-3.9699147E-3,-9.157688E-5,-5.672893E-3,3.3259855E-3,9.662495E-3,-4.9252185E-4],"categories":[],"categories_nodes":[],"categories_segments":[],"categories_sizes":[],"default_left":[true,true,true,false,false,false,false],"id":122,"left_children":[1,3,5,-1,-1,-1,-1],"loss_changes":[1.01851836E-1,1.0331832E-1,1.4273499E-1,0E0,0E0,0E0,0E0],"parents":[2147483647,0,0,1,1,2,2],"right_children":[2,4,6,-1,-1,-1,-1],"split_conditions":[-6.1241563E-2,-4.2786077E-2,-7.367301E-2,-2.8364465E-4,1.6629927E-4,4.8312475E-4,-2.4626093E-5],"split_indices":[0,4,4,0,0,0,0],"split_type":[0,0,0,0,0,0,0],"sum_hessian":[4.4808E4,8.313E3,3.6495E4,6.74E3,1.573E3,1.44E3,3.5055E4],"tree_param":{"num_deleted":"0","num_feature":"5","num_nodes":"7","size_leaf_vector":"0"}},{"base_weights":[-8.7366765E-4,-8.221975E-2,-8.5732824E-4,3.1200238E-3,-1.0704826E-1,9.668854E-2,-8.8123337E-4],"categories":[],"categories_nodes":[],"categories_segments":[],"categories_sizes":[],"default_left":[true,true,true,false,false,false,false],"id":123,"left_children":[1,3,5,-1,-1,-1,-1],"loss_changes":[5.9565876E-2,1.9403726E-2,1.0469206E-1,0E0,0E0,0E0,0E0],"parents":[2147483647,0,0,1,1,2,2],"right_children":[2,4,6,-1,-1,-1,-1],"split_conditions":[-5.1394117E-1,-5.861769E-1,-4.5779133E-1,1.5600119E-4,-5.352413E-3,4.834427E-3,-4.4061668E-5],"split_indices":[0,4,1,0,0,0,0],"split_type":[0,0,0,0,0,0,0],"sum_hessian":[4.4867E4,8E0,4.4859E4,2E0,6E0,1E1,4.4849E4],"tree_param":{"num_deleted":"0","num_feature":"5","num_nodes":"7","size_leaf_vector":"0"}},{"base_weights":[-1.2422226E-3,-1.0324727E-3,-6.9937557E-3,-1.1568054E-3,2.3082152E-2,-2.2674602E-2,-2.0925743E-3],"categories":[],"categories_nodes":[],"categories_segments":[],"categories_sizes":[],"default_left":[true,true,true,false,false,false,false],"id":124,"left_children":[1,3,5,-1,-1,-1,-1],"loss_changes":[5.458285E-2,1.309298E-1,1.2230518E-1,0E0,0E0,0E0,0E0],"parents":[2147483647,0,0,1,1,2,2],"right_children":[2,4,6,-1,-1,-1,-1],"split_conditions":[2.1117303E-1,2.3922509E-1,2.2887889E-1,-5.7840272E-5,1.1541076E-3,-1.13373E-3,-1.04628714E-4],"split_indices":[4,0,3,0,0,0,0],"split_type":[0,0,0,0,0,0,0],"sum_hessian":[4.525E4,4.3659E4,1.591E3,4.3436E4,2.23E2,3.78E2,1.213E3],"tree_param":{"num_deleted":"0","num_feature":"5","num_nodes":"7","size_leaf_vector":"0"}},{"base_weights":[-6.617302E-4,-1.0152239E-3,5.482379E-3,-9.62936E-4,-3.5595186E-2,1.0315933E-2,-4.759659E-3],"categories":[],"categories_nodes":[],"categories_segments":[],"categories_sizes":[],"default_left":[true,true,true,false,false,false,false],"id":125,"left_children":[1,3,5,-1,-1,-1,-1],"loss_changes":[9.740895E-2,7.664426E-2,1.2084239E-1,0E0,0E0,0E0,0E0],"parents":[2147483647,0,0,1,1,2,2],"right_children":[2,4,6,-1,-1,-1,-1],"split_conditions":[1.7544821E-1,1.7288241E-1,2.5449854E-1,-4.81468E-5,-1.7797593E-3,5.1579665E-4,-2.3798295E-4],"split_indices":[0,0,4,0,0,0,0],"split_type":[0,0,0,0,0,0,0],"sum_hessian":[4.4846E4,4.2407E4,2.439E3,4.2344E4,6.3E1,1.657E3,7.82E2],"tree_param":{"num_deleted":"0","num_feature":"5","num_nodes":"7","size_leaf_vector":"0"}},{"base_weights":[-9.854306E-4,1.2478837E-2,-1.1205137E-3,-6.919041E-2,1.4506029E-2,-1.202642E-3,1.7858682E-2],"categories":[],"categories_nodes":[],"categories_segments":[],"categories_sizes":[],"default_left":[true,true,true,false,false,false,false],"id":126,"left_children":[1,3,5,-1,-1,-1,-1],"loss_changes":[8.1846975E-2,7.500867E-2,6.945823E-2,0E0,0E0,0E0,0E0],"parents":[2147483647,0,0,1,1,2,2],"right_children":[2,4,6,-1,-1,-1,-1],"split_conditions":[-2.9790774E-1,-5.1394117E-1,3.483801E-1,-3.4595206E-3,7.2530145E-4,-6.01321E-5,8.929341E-4],"split_indices":[3,3,0,0,0,0,0],"split_type":[0,0,0,0,0,0,0],"sum_hessian":[4.4992E4,4.46E2,4.4546E4,1E1,4.36E2,4.4355E4,1.91E2],"tree_param":{"num_deleted":"0","num_feature":"5","num_nodes":"7","size_leaf_vector":"0"}},{"base_weights":[-3.6531794E-4,-6.0823825E-3,-2.0996168E-4,-5.4935506E-3,-2.3723246E-1,1.2585856E-2,-3.273091E-4],"categories":[],"categories_nodes":[],"categories_segments":[],"categories_sizes":[],"default_left":[true,true,true,false,false,false,false],"id":127,"left_children":[1,3,5,-1,-1,-1,-1],"loss_changes":[3.9951805E-2,1.6066599E-1,6.576327E-2,0E0,0E0,0E0,0E0],"parents":[2147483647,0,0,1,1,2,2],"right_children":[2,4,6,-1,-1,-1,-1],"split_conditions":[-2.316381E-1,